-0.06845352053642273,-0.07199646532535553,-0.08567313849925995,-0.0421689935028553,-0.08529624342918396,-0.08574693650007248,0.004507340490818024,-0.013136766850948334,-0.04673968628048897,-0.01868041604757309,-0.0536285936832428,-0.05554957315325737,-0.048903729766607285,-0.023044951260089874,-0.007966890931129456,0.042134977877140045,-0.06717149913311005,0.025835387408733368,0.04233216494321823,0.062085919082164764,0.05066318064928055,-0.06590099632740021,-0.07236956804990768,0.059662945568561554,0.05475027114152908,8.782744407653809e-05,0.02736586332321167,0.022164173424243927,-0.03569837659597397,0.0173894464969635,0.053907446563243866,-0.06248948723077774,0.06251014024019241,0.006048016250133514,0.012940272688865662,0.005937166512012482,-0.029817473143339157,0.012480787932872772,-0.00988161563873291,-0.07859520614147186,-0.041490837931632996,0.083694688975811,4.696100950241089e-05,0.06927754729986191,0.010770775377750397,0.08388029783964157,0.03584025800228119,-0.08086712658405304,-0.0054699331521987915,-0.033709704875946045,0.01809988170862198,0.06161569803953171,0.06917797774076462,0.034031108021736145,0.03552096337080002,0.02791345864534378,0.03584132343530655,-0.08304315060377121,0.058233000338077545,-0.06985339522361755,-0.004981912672519684,-0.022521868348121643,0.062030188739299774,-0.05463264882564545,-0.07724934071302414,-0.003281809389591217,-0.054588161408901215,-0.05540523678064346,-0.0321417972445488,-0.01614554226398468,0.012475557625293732,0.010964587330818176,0.05474955588579178,0.002204909920692444,0.0688181146979332,0.07882211357355118,-0.008592173457145691,0.04108636826276779,0.06381895393133163,-0.02338414266705513,0.008146494626998901,0.06539272516965866,-0.04163460060954094,0.0771823450922966,-0.07898887991905212,-0.08528422564268112,0.0393747016787529,-0.06517138332128525,-0.026235848665237427,0.009374864399433136,0.016941003501415253,0.052437372505664825,0.0631394311785698,-0.07744723558425903,-0.06864060461521149,-0.08480740338563919,-0.04116109386086464,0.061361320316791534,-0.08124087005853653,-0.012368015944957733,0.051720283925533295,-0.01940285414457321,-0.024640072137117386,0.08490116149187088,-0.030485324561595917,-0.0371759831905365,-0.03514854982495308,0.0734352096915245,0.05944126099348068,0.0596989169716835,0.07725875824689865,-0.01571686565876007,0.04321368783712387,0.08454255014657974,-0.03234390914440155,0.027968987822532654,-0.03450525179505348,-0.033826012164354324,0.036663979291915894,-0.054291702806949615,-0.01934436708688736,0.04404086619615555,0.039401136338710785,-0.01559070497751236,0.0062049031257629395,0.06131424754858017,0.029741093516349792,0.04775787144899368,0.05162421613931656,0.03391261398792267,-0.04820790886878967,0.0555964931845665,-0.0425029881298542,0.04023895412683487,-0.08005475997924805,0.0737251415848732,-0.07470237463712692,0.028360553085803986,-0.07817409187555313,0.07036615163087845,-0.03295357525348663,-0.05259164050221443,-0.00719471275806427,-0.03325960412621498,0.011679604649543762,-0.0005341470241546631,0.03459387272596359,-0.05965796113014221,0.03208271414041519,0.06214960664510727,-0.05725214630365372,-0.07032608985900879,0.07069649547338486,0.04743766039609909,0.05177720636129379,-0.017211951315402985,-0.07036176323890686,-0.013158068060874939,0.007876299321651459,0.023351743817329407,-0.08533568680286407,-0.0227816104888916,0.05006670206785202,0.07015306502580643,-0.047702305018901825,-0.012467049062252045,-0.06650964170694351,0.02169739454984665,0.04019971936941147,-0.03777145966887474,0.00872369110584259,0.08062637597322464,0.021703243255615234,-0.061727963387966156,-0.0712018758058548,-0.08559125661849976,0.04590674489736557,-0.06707929819822311,0.053765468299388885,0.06881531327962875,0.08411594480276108,-0.013290219008922577,-0.01794242113828659,0.006955042481422424,-0.0018854066729545593,0.0663800910115242,-0.07530231028795242,-0.05797542631626129,0.04853443056344986,-0.06444479525089264,0.07942689210176468,0.02463395893573761,0.061842821538448334,0.05115018039941788,-0.01564197987318039,-0.02113860845565796,-0.07224400341510773,0.06526783853769302,0.04525367170572281,-0.06783083081245422,-0.07651776075363159,0.007470071315765381,-0.015605606138706207,-0.048729218542575836,-0.06554177403450012,0.061815835535526276,-0.02447059005498886,-0.030559472739696503,-0.0760296955704689,-0.07147529721260071,-0.08470988273620605,-0.014034569263458252,-0.07673592120409012,0.08491698652505875,-0.03394642844796181,-0.05242440849542618,0.06544090062379837,0.06013932079076767,0.00661052018404007,-0.057650260627269745,-0.014694631099700928,-0.057977426797151566,-0.023916777223348618,0.07534218579530716,0.061623431742191315,0.05149843543767929,-0.0224064439535141,0.013359934091567993,-0.0722007155418396,-0.017541736364364624,-0.04026549309492111,0.05517143756151199,0.0036601871252059937,-0.0803690254688263,0.055797092616558075,-0.010957062244415283,-0.0727347657084465,0.049649663269519806,0.08007923513650894,0.004706323146820068,-0.04833779111504555,0.05091392248868942,0.03798144310712814,0.019779011607170105,-0.07950243353843689,-0.005407355725765228,0.05403173714876175,-0.039897046983242035,0.007437258958816528,0.06891488283872604,-0.0755390152335167,0.02347385138273239,0.058100663125514984,0.04022178798913956,0.029123350977897644,-0.07448437809944153,-0.051401931792497635,-0.01549798995256424,0.0379825085401535,0.04068005830049515,0.013420797884464264,0.0034087076783180237,0.001615479588508606,0.06416404992341995,-0.06292174011468887,0.08156288415193558,-0.017167627811431885,-0.07410912960767746,-0.03805520758032799,-0.026401467621326447,-0.030038148164749146,0.031119056046009064,0.08487885445356369,-0.00991123914718628,0.07441376894712448,0.017442643642425537,-0.01596008986234665,0.08013365417718887,-0.05670410022139549,-0.008316464722156525,0.036268725991249084,-0.07840415090322495,0.004946500062942505,0.01487286388874054,-0.06723293662071228,-0.011494092643260956,-0.075381800532341,0.027271226048469543,0.07710782438516617,0.06971433013677597,-0.012093760073184967,0.033570803701877594,0.03524579852819443,-0.04836050420999527,-0.008897140622138977,-0.06144556403160095,0.03203389048576355,-0.08116526901721954,0.036287084221839905,0.06719120591878891,-0.01672578603029251,-0.06628201901912689,0.015114106237888336,-0.05659208446741104,0.05209998041391373,0.07882712036371231,-0.06221725046634674,-0.0024301856756210327,-0.020743899047374725,0.06740344315767288,0.06161748617887497,-0.05338620766997337,0.055223770439624786,0.015365242958068848,-0.07489307969808578,-0.031460653990507126,-0.028851091861724854,-0.038514137268066406,0.08063175529241562,-0.08391867578029633,-0.06823967397212982,-0.023380525410175323,-0.07082030177116394,0.018626101315021515,-0.0818847194314003,-0.053796786814928055,-0.05092476308345795,-0.05736500024795532,0.04917676001787186,-0.03555534780025482,0.05843959003686905,-0.03143156319856644,0.007219567894935608,-0.009750507771968842,-0.033090122044086456,-0.016206957399845123,-0.07245577871799469,0.07065951079130173,-0.05555243790149689,0.03614383190870285,0.031065262854099274,-0.034598659723997116,-0.014750443398952484,-0.0745532363653183,-0.03704274818301201,-0.0433652438223362,0.054240308701992035,0.0006665214896202087,-0.018103808164596558,-0.0009472593665122986,-0.029905032366514206,0.08066383749246597,0.06644362956285477,0.004987038671970367,-0.042984962463378906,0.041511572897434235,0.006600275635719299,0.00794018805027008,-0.004987187683582306,0.03265625238418579,0.015167303383350372,0.006781592965126038,-0.026156645268201828,-0.036044251173734665,0.07600205391645432,-0.05387189984321594,-0.06930530816316605,0.004573069512844086,0.07418321818113327,0.03846807777881622,-0.032447438687086105,0.024843476712703705,0.08051665872335434,-0.0011807531118392944,-0.0020756199955940247,0.056865014135837555,-0.05054546147584915,-0.06648664176464081,0.005876429378986359,-0.07715445756912231,0.08341643959283829,0.01316436380147934,0.05716750770807266,-0.006108999252319336,0.06933509558439255,0.015820473432540894,0.05773787945508957,0.0855289027094841,-0.06289137899875641,0.05454062670469284,-0.07409418374300003,0.04281296581029892,-0.01699274778366089,0.07228536158800125,0.007263094186782837,0.03269350528717041,-0.04759989678859711,0.08543244749307632,0.00872144103050232,0.01894783228635788,-0.023057855665683746,-0.013264276087284088,-0.059092823415994644,-0.04106982797384262,-0.07549941539764404,0.0026784613728523254,0.024120889604091644,-0.013034909963607788,0.08008743077516556,0.03507263958454132,0.06622406095266342,0.06724720448255539,-0.05324581637978554,0.04182668775320053,-0.053368400782346725,0.05052008479833603,-0.07520328462123871,-0.05820252001285553,-0.07957284152507782,-0.013965226709842682,-0.04197751358151436,0.07109824568033218,0.036973096430301666,0.067383773624897,0.054403312504291534,0.06429549306631088,0.05761245638132095,0.058772630989551544,-0.05538250505924225,-0.07802096754312515,0.007519327104091644,-0.027807824313640594,-0.058625079691410065,-0.0610213503241539,-0.025773867964744568,-0.010195106267929077,0.03722742199897766,0.03841496258974075,0.0713343545794487,-0.04649261757731438,0.0351724848151207,-0.06907142698764801,-0.0312168188393116,-0.0433756522834301,0.04080260545015335,-0.07871907204389572,0.010090596973896027,0.01949383318424225,-0.07368689030408859,-0.01759207248687744,0.08322840183973312,-0.07469470798969269,0.016716793179512024,-0.028876975178718567,0.02995532751083374,0.039831049740314484,0.008011087775230408,-0.07122859358787537,-0.026204179972410202,-0.0018639788031578064,0.04829179495573044,-0.004628963768482208,0.002779841423034668,-0.04908112436532974,-0.06533844769001007,-0.016111113131046295,0.08551929146051407,-0.08389158546924591,-0.07414762675762177,-0.06154351308941841,-0.040711913257837296,-0.08514021337032318,0.048906855285167694,0.049944035708904266,0.0659274086356163,-0.008768916130065918,0.021990418434143066,0.06989119201898575,-0.04256422072649002,-0.004701085388660431,0.07403471320867538,0.02058161050081253,-0.008319877088069916,0.01694633811712265,0.021722644567489624,0.05933690816164017,-0.05796505883336067,0.08292151242494583,-0.0011744797229766846,0.033530980348587036,-0.002124972641468048,0.02223401516675949,0.04615461081266403,0.08189531415700912,-0.03555191308259964,0.03461511433124542,-0.07607287913560867,-0.0809258222579956,-0.06601685285568237,0.07654456049203873,0.08374129980802536,0.07233915477991104,0.05758803337812424,-0.058837905526161194,-0.0588165819644928,-0.03732628747820854,0.0056750476360321045,0.033253103494644165,0.015471167862415314,-0.049344852566719055,0.025633297860622406,-0.07755918800830841,-0.022516794502735138,-0.05565619096159935,-0.04498131945729256,-0.08448503911495209,0.00900682806968689,-0.06706306338310242,0.07652284950017929,0.009493395686149597,0.00031447410583496094,-0.019051052629947662,0.014047004282474518,0.045675747096538544,0.06872307509183884,0.009751647710800171,0.08276592940092087,-0.07430285215377808,-0.07993292808532715,0.05243288725614548,0.009853258728981018,0.033846862614154816,-0.014687865972518921,0.006420940160751343,-0.05209674686193466,0.07728204876184464,0.03654041141271591,0.024112552404403687,0.06555841118097305,-0.007203355431556702,0.021961674094200134,-0.0344361886382103,-0.006626017391681671,-0.05693994462490082,0.030083924531936646,0.057624273002147675,0.07991597801446915,-0.02651442214846611,0.004920206964015961,-0.02215634286403656,0.039245858788490295,-0.047758668661117554,0.033408090472221375,0.07289014011621475,-0.028247088193893433,0.014738120138645172,0.08503157645463943,0.04718448966741562,-0.05950181186199188,0.024788297712802887,0.03760896623134613,-0.05019717290997505,-0.06858869642019272,0.00500401109457016,0.018335461616516113,0.03627874702215195,-0.06168866902589798,0.04627195745706558,-0.010026708245277405,-0.03857700526714325,0.07875526696443558,0.011003591120243073,-0.05282768979668617,0.022223323583602905,-0.0671655535697937,0.05689368396997452,-0.008046172559261322,-0.05227510258555412,0.005541205406188965,0.015195697546005249,0.08178337663412094,-0.05375107377767563,-0.018448196351528168,0.06100311130285263,0.06474132090806961,0.03906725347042084,-0.06649520993232727,0.04859595745801926,-0.013410739600658417,-0.006673999130725861,-0.06461803615093231,-0.012871742248535156,-0.013035193085670471,-0.03741900250315666,0.06879033893346786,0.01871008425951004,0.06611189991235733,0.049195386469364166,-0.020153038203716278,-0.0711393803358078,0.0030842944979667664,-0.020183376967906952,-0.050202611833810806,-0.013760536909103394,-0.016406938433647156,-0.05281374976038933,0.07813852280378342,-0.03927458077669144,0.04020499438047409,0.07657209783792496,-0.03424789756536484,0.039696164429187775,-0.06101658195257187,-0.07494598627090454,-0.08375927060842514,-0.0376240573823452,-0.08141100406646729,0.04179774969816208,0.02486184984445572,0.03314356505870819,0.03305802494287491,-0.07247371226549149,0.07179058343172073,-0.018858246505260468,-0.017807655036449432,0.04436161369085312,0.04985298961400986,0.07895680516958237,-0.05277198180556297,0.07255419343709946,0.05908650904893875,0.058140046894550323,0.048416681587696075,-0.02864019200205803,-0.01519756019115448,-0.02760491520166397,0.01387692242860794,0.07590905576944351,0.04611756652593613,-0.05959654599428177,-0.02277582883834839,0.027299560606479645,0.08416659384965897,0.010332345962524414,0.07350913435220718,0.04698529094457626,-0.07524435222148895,-0.059712670743465424,0.07993771880865097,-0.01448512077331543,-0.012205816805362701,-0.05199632793664932,-0.04018297791481018,0.0042787715792655945,0.05794244259595871,-0.03835050389170647,0.06419821828603745,-0.08462132513523102,-0.08257052302360535,0.05245841294527054,-0.01841973513364792,0.01841478794813156,-0.012666769325733185,-0.00208292156457901,-0.01301567256450653,0.04945606738328934,-0.07871686667203903,0.06927584856748581,0.025512591004371643,-0.012483730912208557,0.015174150466918945,0.047063641250133514,0.009754389524459839,0.03105107694864273,-0.028671879321336746,-0.014942295849323273,-0.04417328163981438,-0.05496212840080261,0.07348435372114182,-0.043745383620262146,-0.07367897778749466,0.04233544319868088,-0.05354597792029381,0.08010215312242508,0.061864279210567474,0.05946426838636398,0.062053896486759186,0.041146449744701385,-0.050141770392656326,-0.0630633533000946,0.007943585515022278,-0.06699758023023605,-0.023236967623233795,-0.014007136225700378,0.005920708179473877,-0.07578283548355103,-0.057309821248054504,-0.07760488241910934,0.02796291559934616,0.057670868933200836,-0.07272977381944656,-0.05941066890954971,-0.025878340005874634,0.06284362822771072,0.001975446939468384,0.044520072638988495,-0.027828719466924667,-0.0036541223526000977,0.04058877378702164,0.08267376571893692,0.026370905339717865,-0.04825638234615326,0.041257329285144806,0.05144321173429489,0.02184087038040161,0.03634931892156601,0.04466535896062851,-0.07367752492427826,0.04520166665315628,-0.012930646538734436,-0.07014284282922745,0.04558820277452469,0.010987997055053711,0.041019223630428314,-0.06583359092473984,-0.06729336827993393,-0.03556321933865547,0.054976172745227814,0.01349496841430664,-0.017954468727111816,-0.04862785339355469,0.040171630680561066,0.0005586594343185425,-0.04758595675230026,0.04460025578737259,-0.049949899315834045,-0.025296803563833237,0.032107897102832794,-0.05556372180581093,-0.021838374435901642,0.04222869127988815,-0.0833427831530571,-0.06689724326133728,0.020749948918819427,0.04380328208208084,0.08542653173208237,0.00465741753578186,0.035648003220558167,0.03046412020921707,-0.048662569373846054,-0.0846327468752861,-0.04423809051513672,0.02213997393846512,0.00955139845609665,0.037721000611782074,0.025832220911979675,0.026847928762435913,-0.0731133297085762,0.008936375379562378,-0.03343303129076958,0.035808853805065155,-0.005650356411933899,0.08524390310049057,-0.06078971549868584,0.007520243525505066,-0.04178091883659363,0.005491480231285095,0.005978502333164215,0.06080888956785202,0.019868597388267517,0.0007904171943664551,-0.047412119805812836,-0.016671404242515564,0.07040620595216751,-0.03929639607667923,-0.008847072720527649,-0.02523156628012657,-0.07545729726552963,-0.049374744296073914,-0.0766998827457428,0.06809001415967941,-0.01618252694606781,0.02284388244152069,0.025352001190185547,0.02663911134004593,0.025200411677360535,-0.04677789658308029,-0.0666303038597107,0.08549625426530838,-0.08257493376731873,-0.043060604482889175,0.05754873901605606,-0.058923013508319855,0.024422161281108856,0.0835370346903801,-0.06396105885505676,-0.06732023507356644,-0.05625704675912857,-0.05540180206298828,-0.011643454432487488,-0.05788033828139305,0.021536536514759064,-0.011218525469303131,0.025802411139011383,-0.04331378638744354,0.059184931218624115,-0.0017011463642120361,0.03327489644289017,-0.04322326183319092,0.020138420164585114,0.014111526310443878,0.041288502514362335,-0.03767428919672966,0.07262926548719406,0.0443006232380867,-0.006237819790840149,-0.030008237808942795,0.07384500652551651,-0.053623300045728683,0.01699802279472351,-0.02178434282541275,0.025605283677577972,0.04667455703020096,0.006411448121070862,0.03836376965045929,-0.04520193487405777,-0.051750484853982925,-0.08519335091114044,-0.02549198642373085,-0.05433307960629463,-0.042586565017700195,-0.052829593420028687,0.013486482203006744,0.04627617448568344,0.042507611215114594,-0.019021615386009216,-0.048996053636074066,0.02225368469953537,-0.014540895819664001,-0.06472461670637131,-0.0849892795085907,0.013775400817394257,-0.062137216329574585,0.03991525620222092,-0.07716300338506699,0.06609147042036057,0.035215459764003754,-0.055866826325654984,-0.008981086313724518,-0.02580799162387848,0.04426205903291702,-0.00408463180065155,0.05530855804681778,0.018112190067768097,-0.04372289776802063,0.06530535966157913,0.0708857849240303,0.030269064009189606,-0.04059603437781334,0.03592720627784729,0.053112976253032684,-0.030460525304079056,-0.034614015370607376,-0.06462664902210236,0.04697323590517044,0.07725963741540909,-0.06407375633716583,0.01446022093296051,0.02036246657371521,-0.02168676257133484,0.010739371180534363,0.05286898463964462,0.002903260290622711,0.023546800017356873,0.07719055563211441,0.05866146832704544,0.06441497057676315,0.06027301400899887,-0.017852693796157837,0.004233814775943756,0.02586047351360321,0.06187058240175247,-0.023619908839464188,0.016454428434371948,0.017002947628498077,0.04025281220674515,-0.0012262016534805298,-0.07936985790729523,-0.07867949455976486,0.007168538868427277,0.0040101781487464905,0.016657158732414246,0.07452111691236496,-0.024083316326141357,0.03125893324613571,0.08330342918634415,-0.0675828829407692,0.04533747583627701,0.030848756432533264,0.03499850630760193,0.05451924353837967,0.012799985706806183,-0.0730292797088623,-0.01995082199573517,0.05737299472093582,-0.05230288952589035,-0.015230171382427216,-0.0701383501291275,-0.0438237264752388,0.0743066594004631,-0.02900644764304161,-0.014142677187919617,-0.03259563818573952,0.023457087576389313,0.04097308963537216,-0.03535822406411171,0.047677673399448395,-0.0196753591299057,-0.04909232631325722,-0.0637909471988678,-0.05365312844514847,-0.026161614805459976,-0.01115424931049347,0.06151897460222244,-0.06611424684524536,0.04316174238920212,0.05440177768468857,-0.039033930748701096,0.04652237147092819,0.0378325879573822,0.053159199655056,-0.061299100518226624,0.07543342560529709,0.03532768040895462,0.02986118197441101,0.08380747586488724,0.08533716946840286,-0.004473276436328888,0.03786556422710419,-0.07354474067687988,0.04178076237440109,0.02343202382326126,-0.044242486357688904,-0.04824896156787872,0.0064734965562820435,0.026884116232395172,-0.027790836989879608,-0.05445317178964615,0.06908289343118668,0.02932944893836975,0.0653708353638649,0.057143889367580414,-0.003872998058795929,0.08022177964448929,0.0032128915190696716,-0.06505580991506577,0.002040371298789978,-0.06577242165803909,0.023462221026420593,0.08303947001695633,-0.07424919307231903,-0.05245194584131241,-0.04485573247075081,-0.08131937682628632,0.028679728507995605,-0.04028822481632233,0.0509163960814476,0.010228633880615234,0.05776634067296982,0.07046746462583542,0.04973465949296951,0.06005033105611801,-0.056804440915584564,-0.011283859610557556,-0.00978599488735199,0.0448291078209877,-0.024364609271287918,0.07106570154428482,0.05003272742033005,-0.06348990648984909,0.022098205983638763,0.019988462328910828,0.01718486100435257,-0.043171126395463943,-0.04100818932056427,-0.07583527266979218,-0.030479904264211655,0.04577680677175522,0.017882831394672394,-0.03893670067191124,0.0445890799164772,0.011654026806354523,0.029095813632011414,0.054153211414813995,-0.04629649594426155,-0.0518583282828331,0.029788337647914886,-0.057158615440130234,-0.024050768464803696,-0.03455554321408272,0.07210839539766312,0.0011482462286949158,0.08470728248357773,0.06916435807943344,0.022672809660434723,0.06291551142930984,-0.047202546149492264,0.0629219189286232,-0.06958620995283127,-0.019786901772022247,0.06359728425741196,-0.011781945824623108,0.002021379768848419,0.002341844141483307,0.08530435711145401,-0.018232323229312897,-0.038133058696985245,0.046323396265506744,-0.061288125813007355,0.012142747640609741,0.08556143194437027,-0.07364453375339508,-0.028735462576150894,0.05095193535089493,0.07786094397306442,0.057239823043346405,0.010194756090641022,0.032625772058963776,0.04029121249914169,0.066768117249012,0.03754489868879318,-0.0561981275677681,-0.016556181013584137,0.04404773563146591,-0.008504226803779602,0.051920317113399506,0.00950486958026886,0.033037006855010986,-0.07517437636852264,-0.022191263735294342,-0.02577652782201767,0.023812100291252136,0.06772870570421219,-0.04003142565488815,0.06045270711183548,0.011135987937450409,0.08415020257234573,0.05588052421808243,-0.07205899804830551,0.07933313399553299,0.04249536246061325,0.008820392191410065,-0.03377361223101616,0.07965133339166641,0.011870816349983215,-0.024662543088197708,0.0649549588561058,0.027182742953300476,-0.015016384422779083,0.06617435067892075,0.041746415197849274,-0.07404398918151855,-0.08551117777824402,-0.03931182995438576,-0.08265434205532074,-0.0471639446914196,-0.06960630416870117,-0.08051826804876328,-0.029665160924196243,0.07861518114805222,-0.05477876588702202,-0.07385066896677017,0.04238685220479965,0.02029414474964142,0.0793573185801506,-0.03828877955675125,-0.0741768553853035,-0.03350687772035599,-0.032385144382715225,-0.009442836046218872,0.009255468845367432,-0.001189999282360077,-0.06365355849266052,0.010886035859584808,-0.04109381139278412,-0.011608414351940155,0.0131731778383255,-0.04810859262943268,-0.06671854108572006,-0.05908376723527908,-0.06892259418964386,-0.07231402397155762,0.08296164125204086,-0.007664129137992859,0.053866975009441376,0.04674772173166275,0.03341851383447647,0.028343364596366882,-0.03464122489094734,-0.042087357491254807,0.03116907924413681,-0.003164544701576233,-0.017380431294441223,0.04224985092878342,-0.07521266490221024,-0.008920632302761078,-0.06842836737632751,0.08303435891866684,-0.017171189188957214,-0.032671812921762466,0.07401696592569351,0.07632014900445938,-0.037730101495981216,-0.03795255720615387,-0.04151173308491707,-0.0011127591133117676,0.026938579976558685,0.008030861616134644,-0.02356249839067459,-0.005153559148311615,0.0009858384728431702,0.052040643990039825,0.06939775496721268,-0.03913850337266922,0.031186439096927643,0.03444316238164902,0.02764241397380829,0.04989660531282425,0.0010785385966300964,-0.04250624030828476,-0.07149367779493332,-0.045174192637205124,0.048502661287784576,0.026264533400535583,-0.030136972665786743,-0.07519122213125229,0.0362432524561882,-0.02915947511792183,-0.002103261649608612,0.0023801177740097046,-0.0021472349762916565,0.059963054955005646,-0.08298568427562714,0.013533197343349457,0.0750088021159172,0.033596813678741455,-0.04878245294094086,-0.06068287044763565,0.0004785209894180298,-0.043576885014772415,-0.015784695744514465,-0.01604771614074707,0.04916367679834366,-0.0007631182670593262,0.06832116097211838,0.07545693963766098,0.024671413004398346,0.08148504048585892,0.0763707235455513,0.031219743192195892,-0.04926634952425957,-0.06333409994840622,0.04946308583021164,0.008974418044090271,0.08319521695375443,0.00422021746635437,-0.035437874495983124,-0.05675183981657028,-0.014651559293270111,0.07130616158246994,-0.0036928579211235046,-0.018056847155094147,0.064565010368824,-0.045191917568445206,0.07073449343442917,-0.009204521775245667,-0.02580878883600235,-0.07968121767044067,-0.036727190017700195,0.08250758796930313,-0.029656291007995605,0.026046596467494965,0.014238402247428894,0.06015659123659134,-0.07815689593553543,-0.03081919625401497,-0.04912031441926956,0.07015185803174973,-0.0010176748037338257,0.08338654786348343,0.01164574921131134,-0.05951812490820885,-0.014668874442577362,0.034863680601119995,-0.060378313064575195,-0.04279397428035736,0.04688980430364609,0.03066892921924591,0.05898670107126236,-0.025090929120779037,-0.07512039691209793,-0.030032586306333542,-0.02811068668961525,-0.041371073573827744,-0.020236879587173462,-0.030592717230319977,0.032029107213020325,-0.004267401993274689,0.024244092404842377,0.05114390701055527,0.043199531733989716,0.042009077966213226,0.051833249628543854,0.07282797247171402,-0.03559216856956482,-0.005821146070957184,-0.06048262119293213,0.06612112373113632,-0.021506793797016144,-0.05493395775556564,0.0010906979441642761,0.0015207603573799133,-0.02742627263069153,-0.03652428090572357,0.02141992747783661,-0.07126373797655106,-0.05432850122451782,0.04893022030591965,0.06564294546842575,-0.007212497293949127,-0.03735775128006935,-0.0848289355635643,0.0767323449254036,0.06718612462282181,-0.003922082483768463,0.0810881033539772,0.058591730892658234,-0.03192431107163429,-0.026552140712738037,0.009918473660945892,-0.031951725482940674,0.05741206556558609,0.056745536625385284,-0.005221456289291382,-0.0511411651968956,-0.05500594154000282,0.026128560304641724,0.08492154628038406,0.07719285041093826,-0.049178436398506165,-0.012361742556095123,0.03216477483510971,-0.07756105065345764,-0.06678218394517899,-0.06464727222919464,-0.03239334002137184,-0.005128003656864166,0.07036901265382767,0.01724688708782196,-0.0684845894575119,-0.06591949611902237,0.0171269029378891,-0.04562206193804741,0.0571979358792305,0.0023459717631340027,-0.057671867311000824,0.07027628272771835,-0.0774872675538063,-0.013538740575313568,0.0729091539978981,0.0008732378482818604,-0.04041943699121475,0.03609798103570938,0.05475429445505142,-8.276104927062988e-05,0.034469328820705414,0.03318077325820923,0.043463148176670074,-0.006278522312641144,0.018787875771522522,-0.05491739511489868,0.057801298797130585,-0.08257164806127548,-0.043325912207365036,0.012372151017189026,-0.0853009894490242,-0.016025125980377197,-0.05840393528342247,-0.05885295197367668,0.05074737221002579,-0.0634850412607193,-0.0018061473965644836,0.009135216474533081,0.012042835354804993,-0.015077836811542511,0.05068699270486832,0.07399629801511765,-0.0006484910845756531,-0.07686977088451385,-0.023399826139211655,0.028130926191806793,-0.07576639950275421,0.05146563798189163,-0.01753777265548706,-0.001443035900592804,0.026687130331993103,0.006891749799251556,-0.03788502886891365,-0.04944290593266487,-0.007639333605766296,-0.029476217925548553,-0.0787852555513382,0.06636258214712143,-0.02792723849415779,-0.015772372484207153,-0.05331393703818321,0.058724112808704376,0.07496882230043411,-0.01756817102432251,-0.06502990424633026,0.02375026047229767,0.05349596589803696,-0.07878298312425613,0.020863577723503113,0.053506217896938324,-0.0453496016561985,0.05782855302095413,-0.06471684575080872,-0.06108035147190094,-0.04328072816133499,0.03396119177341461,-0.0821746215224266,-0.008967451751232147,-0.02796275168657303,0.05208153277635574,0.0652514174580574,-0.07916596531867981,-0.05236675590276718,0.03028120845556259,-0.07921218872070312,-0.07046148926019669,0.08410101383924484,-0.005986705422401428,0.01130203902721405,0.033342160284519196,-0.08209868520498276,-0.05667394399642944,-0.05881471931934357,-0.008374892175197601,0.03166741132736206,0.07085729390382767,0.05987859517335892,0.04484338313341141,-0.021777227520942688,0.01655150204896927,-0.08227475732564926,-0.06434210389852524,-0.0387391671538353,-0.06377066671848297,0.07014591246843338,-0.05654843896627426,0.018063820898532867,-0.07593980431556702,0.017826810479164124,0.0739164873957634,0.030417241156101227,-0.026200070977211,-0.03546132519841194,-0.06951060891151428,-0.055357396602630615,-0.017603538930416107,-0.029253680258989334,-0.07169915735721588,-0.02135477215051651,-0.02282215654850006,0.02686101198196411,-0.0734218955039978,-0.0686180517077446,-0.056888241320848465,-0.03503710776567459,0.04340652376413345,-0.07230889052152634,-0.004538089036941528,-0.06719429790973663,-0.06816104054450989,0.0014417916536331177,0.06505762785673141,0.07410699874162674,-0.06282765418291092,-0.05121484771370888,-0.026017319411039352,0.03002021461725235,-0.08403980731964111,-0.04653998836874962,0.0071465447545051575,0.011516496539115906,0.02292294055223465,-0.033200621604919434,0.07124126702547073,0.0059528648853302,0.05856620520353317,0.08079003542661667,0.009694814682006836,-0.06099305301904678,0.01926003396511078,-0.07462309300899506,0.041890911757946014,0.01874154806137085,-0.040503546595573425,0.03401481360197067,0.025280512869358063,0.07736469060182571,0.03648713231086731,-0.03303181380033493,0.022562101483345032,0.03582153469324112,0.04703015834093094,-0.013800747692584991,0.08047983795404434,0.0156082883477211,0.03405936062335968,-0.024477951228618622,0.002950407564640045,-0.007683165371417999,0.003943346440792084,-0.00815117359161377,-0.008926540613174438,0.04965294152498245,0.0017888471484184265,0.06101887673139572,-0.0674000084400177,0.04785674065351486,0.026488251984119415,0.08294715732336044,-0.051303595304489136,-0.00159376859664917,-0.03549548611044884,0.01631782203912735,-0.04898303374648094,-0.03397194296121597,-0.03204356133937836,-0.0604277104139328,-0.004774056375026703,-0.07656557857990265,0.06881121546030045,0.027024731040000916,-0.08146054297685623,-0.04785461351275444,-0.014875650405883789,0.07087153941392899,0.037891387939453125,-0.07387874275445938,-0.06170690432190895,-0.0014461427927017212,0.06535675376653671,0.0021411627531051636,0.03352782875299454,0.06153944879770279,-0.02036219835281372,0.010140374302864075,-0.034602873027324677,0.028888732194900513,0.052734605967998505,0.06639691442251205,-0.07384666055440903,0.005586564540863037,0.00033808499574661255,-0.02300529181957245,-0.0332934595644474,-0.032810259610414505,0.013308003544807434,0.0008471235632896423,0.01720430701971054,-0.07306207716464996,0.0450022891163826,-0.014518752694129944,0.003020964562892914,-0.07388589531183243,-0.029268361628055573,0.03654617816209793,0.0755176916718483,0.04867098480463028,0.004761606454849243,0.01570875197649002,0.028829403221607208,0.019534394145011902,0.036818742752075195,0.022144712507724762,0.008532270789146423,0.023068077862262726,-0.08066786080598831,0.04696711152791977,-0.006721019744873047,0.05114848166704178,-0.003415517508983612,0.0710158720612526,-0.07069091498851776,0.02634602040052414,0.08427257090806961,-0.04395679756999016,0.041124291718006134,-0.010786965489387512,-0.01781746745109558,0.02695343643426895,0.0803784504532814,0.06967144459486008,0.046841539442539215,-0.04323853179812431,-0.05902629718184471,-0.06249915808439255,-0.04900936409831047,0.04539499431848526,-0.01976028084754944,-0.0836544930934906,0.07471763342618942,0.04508223384618759,-0.06326037645339966,-0.038554493337869644,-0.07793401181697845,-0.07243662327528,0.08250954002141953,-0.07209872454404831,-0.026619113981723785,-0.05131007358431816,0.0043635740876197815,-0.008009575307369232,0.03663623332977295,-0.02873999997973442,0.012305974960327148,0.06119779497385025,-0.057266317307949066,0.023693978786468506,0.06838306039571762,-0.04239596426486969,-0.052049197256565094,-0.039649322628974915,0.0011291131377220154,0.023494422435760498,-0.05434219911694527,-0.060199737548828125,0.014339432120323181,-0.06599943339824677,0.07364348322153091,-0.06668774783611298,-0.04735616222023964,0.03202164173126221,0.07803728431463242,-0.030008133500814438,0.06688200682401657,0.0450822189450264,-0.028695736080408096,0.041008032858371735,-0.04616362974047661,0.06742241233587265,0.0802336260676384,0.07561875134706497,0.025404036045074463,-0.05729234218597412,0.05579417198896408,0.012403734028339386,-0.014445558190345764,-0.06926779448986053,-0.026453189551830292,0.03688894212245941,-0.05700301378965378,0.04411631077528,-0.008265718817710876,-0.024503055959939957,0.06347879022359848,-0.07085176557302475,0.013133488595485687,0.0545317605137825,0.020328223705291748,0.0015046298503875732,0.06767833977937698,0.007944360375404358,0.0678081288933754,0.01367342472076416,-0.012076914310455322,-0.08292913436889648,-0.018161296844482422,-0.062018513679504395,-0.021414995193481445,-0.05526316910982132,0.06783909350633621,0.05943989008665085,0.06824447959661484,-0.07515856623649597,0.06966712325811386,-0.02403406798839569,-0.023199304938316345,-0.0644984170794487,0.02699197828769684,0.012330256402492523,-0.0323755145072937,0.06497292965650558,0.06563090533018112,0.040248967707157135,0.058333076536655426,-0.07828469574451447,-0.01629132777452469,0.06490977853536606,0.02826659381389618,-0.06558822095394135,-0.07433164119720459,0.0832715705037117,-0.00011802464723587036,-0.054590411484241486,0.060036592185497284,-0.053170520812273026,0.04338207095861435,0.03123585134744644,-0.03537110239267349,0.021622098982334137,-0.08013193309307098,0.03348831087350845,0.015460431575775146,-0.06440034508705139,-0.03443530946969986,-0.02484850212931633,0.009790085256099701,-0.06706621497869492,0.08434710651636124,-0.05624036490917206,0.03085131198167801,-0.0681193396449089,-0.0856134369969368,-0.07610104978084564,0.0055679455399513245,0.0799291655421257,0.08445844799280167,-0.023465555161237717,0.005951009690761566,-0.04768417030572891,0.004513494670391083,-0.010958962142467499,-0.034601278603076935,-0.052037399262189865,-0.02648700401186943,0.006437152624130249,0.024938762187957764,-0.0013694390654563904,0.08314377814531326,-0.0797065943479538,0.05425616353750229,-0.04405679181218147,0.06336065381765366,-0.011960156261920929,-0.015411041676998138,-0.054074011743068695,-0.00639110803604126,0.0038839131593704224,-0.025169048458337784,-0.030716221779584885,-0.013108387589454651,-0.056534186005592346,-0.05283642187714577,0.06839049607515335,0.039708904922008514,0.0421249195933342,-0.08289235085248947,-0.016819976270198822,-0.016708269715309143,0.06482941657304764,0.04030785709619522,0.02354688197374344,-0.06632421165704727,0.0009998232126235962,-0.03926771134138107,0.03477942943572998,-0.008997134864330292,0.056660763919353485,0.07912979274988174,0.07736343890428543,0.05073430389165878,0.06193435937166214,-0.06753213703632355,-0.0573919452726841,-0.05224490910768509,0.051348842680454254,-0.0695662796497345,0.07313212007284164,0.012353643774986267,-0.015913210809230804,-0.03617670759558678,0.001974157989025116,-0.04355310648679733,-0.06396587193012238,0.03829125314950943,-0.06523473560810089,0.07915142923593521,-0.03991503641009331,-0.0548817440867424,-0.005970858037471771,0.06938397139310837,0.03435374051332474,-0.001285657286643982,0.07853511720895767,0.011384405195713043,0.033298060297966,0.031388670206069946,-0.03589445725083351,0.03530891239643097,0.030003227293491364,-0.07991957664489746,-0.011722266674041748,0.014349415898323059,-0.03346807509660721,0.020662017166614532,-0.07613960653543472,0.059689588844776154,-0.04911375418305397,0.08394298702478409,0.024315297603607178,0.0176762193441391,-0.07429173588752747,-0.08085958659648895,0.027229785919189453,-0.00896146148443222,-0.0766088217496872,0.03566136956214905,0.027646169066429138,-0.07788887619972229,-0.043306201696395874,-0.02264195680618286,-0.05156078189611435,-0.014633238315582275,-0.045449063181877136,0.04764070361852646,-0.08308818936347961,0.03620230406522751,0.0059637650847435,-0.036875735968351364,0.004081793129444122,0.05232170969247818,-0.026911098510026932,-0.07227358222007751,-0.06243821233510971,-0.07961827516555786,0.04796033352613449,0.007993265986442566,0.010237932205200195,-0.07410507649183273,-0.045670393854379654,0.010581396520137787,-0.028450775891542435,-0.05524691939353943,0.021623611450195312,-0.051133520901203156,0.06803569942712784,0.03103257715702057,0.0799865797162056,-0.052271198481321335,-0.0252685509622097,0.08088401705026627,-0.038706108927726746,-0.04191957414150238,-0.059677302837371826,0.05386895686388016,0.007314354181289673,0.025843627750873566,-0.0061731114983558655,-0.03278505429625511,0.04834873229265213,-0.031013254076242447,0.035811737179756165,-0.06216857582330704,-0.0022649168968200684,-0.05691573768854141,0.06465796381235123,-0.005440965294837952,0.05719003826379776,0.04253032058477402,0.029830634593963623,-0.0479925312101841,0.03435089439153671,-0.04526884853839874,-0.006121411919593811,-0.07688674330711365,0.05606705695390701,0.008342303335666656,-0.08053462207317352,-0.08520862460136414,0.023011960089206696,-0.005453743040561676,0.0517694428563118,0.07613926380872726,-0.041783906519412994,0.08331436663866043,-0.07250658422708511,-0.04107023775577545,0.008907489478588104,-0.08428562432527542,-0.014014676213264465,-0.014683447778224945,-0.011151202023029327,0.016487017273902893,-0.009779311716556549,0.08255385607481003,-0.016756802797317505,-0.0057098641991615295,0.01455371081829071,0.04526189714670181,0.058826617896556854,-0.05332986265420914,0.03990166634321213,-0.07828868180513382,-0.06700995564460754,0.03167247772216797,0.0806298479437828,0.02659689635038376,-0.04423533007502556,0.08077625185251236,-0.018311135470867157,0.012287326157093048,-0.014702260494232178,0.07603562623262405,0.00974244624376297,-0.030794765800237656,0.06952492147684097,-0.01726565510034561,-0.05830731615424156,0.07366945594549179,-0.050869155675172806,0.06872808188199997,0.016934767365455627,-0.08281724154949188,-0.03501427173614502,-0.05538652837276459,0.004814840853214264,0.07261132448911667,-0.02526010572910309,-0.0007660463452339172,0.011686287820339203,-0.07498879730701447,-0.07637681812047958,-0.006725616753101349,-0.021981097757816315,0.048191510140895844,-0.03929007798433304,0.06691328436136246,0.06058179587125778,-0.02258545160293579,-0.057637520134449005,0.08150779455900192,-0.007922112941741943,0.013544850051403046,0.005656734108924866,0.05056757479906082,-0.00965077430009842,0.07793804258108139,0.05486651510000229,-0.07468720525503159,-0.06540518254041672,0.06336278468370438,0.05780922621488571,-0.025021810084581375,0.031275101006031036,-0.045753397047519684,-0.08241716772317886,0.0721723809838295,0.006016097962856293,0.05190763622522354,0.06143883615732193,-0.06403592973947525,0.07481246441602707,-0.06033157929778099,0.017445646226406097,-0.000687822699546814,-0.04497332498431206,-0.0791623443365097,-0.01023814082145691,-0.022428028285503387,-0.08008037507534027,-0.0677649974822998,0.03692212700843811,0.03621064871549606,0.06835027784109116,-0.024530675262212753,-0.0038656964898109436,0.061484016478061676,0.05883412808179855,0.036986544728279114,0.06044534593820572,-0.034767162054777145,0.01185501366853714,0.03881358355283737,-0.013480082154273987,-0.03367435559630394,-0.06236332654953003,0.06311381608247757,0.039637647569179535,-0.08080403506755829,0.02345810830593109,0.022910818457603455,0.006373673677444458,0.032118409872055054,0.07887505739927292,-0.030244797468185425,-0.0503641813993454,-0.024702876806259155,0.050348617136478424,-0.026139475405216217,-0.03764713928103447,-0.0023204609751701355,-0.03006427362561226,-0.035900894552469254,-0.04480844363570213,0.08114240318536758,-0.010132811963558197,0.08473683148622513,0.0222628191113472,0.04557659476995468,0.012376196682453156,-0.034247346222400665,-0.036335334181785583,-0.08373032510280609,-0.015837915241718292,-0.06375281512737274,0.018276892602443695,-0.046164918690919876,-0.0038926005363464355,-0.012525111436843872,0.05790496617555618,-0.07022838294506073,-0.00012043863534927368,0.08034542948007584,0.004641041159629822,0.07068290561437607,0.08290684968233109,0.05725114792585373,-0.0753931850194931,0.017693229019641876,0.037339575588703156,-0.05258900299668312,-0.055422306060791016,-0.03620285540819168,0.046769388020038605,-0.0043754130601882935,-0.028112687170505524,0.08033739775419235,0.014828376471996307,-0.07120580226182938,-0.08514506369829178,0.08403951674699783,-0.02958305925130844,-0.04943601414561272,0.014927312731742859,0.06558840721845627,-0.07935868948698044,0.005720928311347961,-0.026030629873275757,-0.029366493225097656,-0.02021118253469467,0.006275556981563568,-0.049346305429935455,-0.0810166597366333,0.07830465584993362,0.05995196849107742,-0.07086029648780823,0.0726267620921135,-0.03565317392349243,-0.032006025314331055,-0.03147318959236145,0.06527382880449295,0.03335622698068619,-0.08155687898397446,-0.052347537130117416,0.042083971202373505,-0.007626429200172424,0.013316512107849121,-0.06734231114387512,-0.0483122356235981,-0.05717472732067108,-0.008305810391902924,0.08288309723138809,0.0792442187666893,0.0170997753739357,-0.039178431034088135,0.013276584446430206,0.0745236799120903,0.04394393414258957,-0.020434878766536713,0.00831577181816101,-0.06163432449102402,0.030505582690238953,0.06093939393758774,0.059784553945064545,0.08497396856546402,0.01882176846265793,0.022104665637016296,0.023787282407283783,-0.05430041253566742,-0.039142102003097534,-0.08383090794086456,0.021968156099319458,-0.055390045046806335,-0.07689473032951355,0.02211153507232666,-0.061322879046201706,0.005520902574062347,-0.048622600734233856,0.03781326860189438,-0.03879373148083687,-0.06045616790652275,0.01706397533416748,-0.0030789002776145935,0.019356288015842438,0.022886961698532104,-0.0729726105928421,-0.06434402614831924,-0.011344417929649353,-0.03864230215549469,-0.011157825589179993,0.07417681068181992,0.014294639229774475,-0.07586003094911575,0.07663574069738388,-0.05530410259962082,-0.08066869527101517,-0.019956260919570923,-0.07927922904491425,0.029295489192008972,0.05382625013589859,-0.01681547611951828,-0.055781103670597076,0.01860426366329193,-0.08302072435617447,0.004113867878913879,0.07596773654222488,0.053427956998348236,-0.06729784607887268,0.01929900050163269,0.02266726642847061,0.044070757925510406,-0.07350687682628632,0.06320857256650925,0.07188517600297928,0.08403756469488144,0.01550651341676712,0.0719800516963005,-0.060135193169116974,-0.034272246062755585,0.018636420369148254,0.07074985653162003,-0.03398478031158447,0.012723281979560852,-0.06457522511482239,0.03688614070415497,-0.0660862997174263,-0.0347953736782074,-0.04571124166250229,0.07162895053625107,0.004241377115249634,-0.020619429647922516,0.033870354294776917,-0.057381805032491684,-0.08329164981842041,0.022577330470085144,0.05360608547925949,0.00860597938299179,0.05517909675836563,0.02425318956375122,0.08262474089860916,-0.015398688614368439,0.02715105563402176,0.03626608848571777,-0.030033506453037262,-0.06150687485933304,-0.0490858256816864,-0.04620944708585739,0.08376086503267288,-0.08284985274076462,0.049838460981845856,0.06845290213823318,-0.05117589980363846,0.02292332798242569,0.0039018839597702026,0.03130806237459183,-0.03016551584005356,-0.015496373176574707,-0.06357616186141968,0.010853365063667297,-0.04177859053015709,-0.07885151356458664,0.012502402067184448,-0.00969986617565155,0.02074865996837616,-0.04014025256037712,-0.06670606881380081,-0.010261960327625275,0.08492491394281387,0.009123437106609344,-0.0730191245675087,0.023865200579166412,-0.06250780820846558,0.016113214194774628,0.007031440734863281,0.03294973075389862,0.020306207239627838,0.04735998064279556,-0.03803533315658569,0.0666356012225151,0.0373883992433548,0.04341883212327957,-0.020543113350868225,0.06623867899179459,0.036716051399707794,-0.06827708333730698,0.08174296468496323,0.0702509805560112,0.02891112118959427,0.04481101781129837,0.07925217598676682,-0.08281239867210388,-0.023536186665296555,-0.02950158715248108,0.06730233877897263,-0.06313088536262512,-0.08454377949237823,-0.031084012240171432,-0.05878524109721184,-0.05406452715396881,0.0012596473097801208,0.06786984950304031,-0.07460371404886246,0.0633138045668602,0.02408766746520996,-0.010480344295501709,-0.037050455808639526,-0.0834626853466034,-0.00206717848777771,0.02729489654302597,0.00549798458814621,-0.06761113554239273,0.08098597079515457,0.06586331874132156,-0.07272746413946152,-0.0004757195711135864,0.049591802060604095,0.047531090676784515,0.0275329127907753,-0.06300881505012512,-0.07647542655467987,0.028751470148563385,0.04832690209150314,-0.06736445426940918,0.04887375980615616,0.05562985688447952,-0.060290075838565826,0.0695013627409935,0.07384582608938217,-0.03808646649122238,-0.05115602910518646,0.04501744359731674,0.010401450097560883,-0.033440228551626205,0.06910834461450577,-0.07544615864753723,-0.024219129234552383,0.0008081197738647461,-0.05927439033985138,0.007191620767116547,-0.04594720900058746,-0.019670777022838593,-0.05767510086297989,0.08113964647054672,-0.03274735435843468,0.0278240367770195,-0.07226808369159698,-0.046014510095119476,-0.05164720118045807,-0.08334603160619736,-0.02568943426012993,0.03352006524801254,0.0447579100728035,-0.0024406909942626953,0.001603826880455017,-0.02694583311676979,0.00048554688692092896,-0.06776601821184158,-0.025118160992860794,-0.08540106564760208,0.07664357870817184,0.004000954329967499,0.06601353734731674,0.07264778763055801,-0.08275439590215683,-0.052129171788692474,0.06411781162023544,0.030980199575424194,-0.027719158679246902,-0.08483757823705673,-0.053749069571495056,0.06240468472242355,-0.03147326782345772,-0.008380129933357239,0.06780917197465897,-0.08278536796569824,0.05807272344827652,-0.003750428557395935,0.03736653923988342,0.06896423548460007,0.035731494426727295,0.03741965442895889,-0.06710806488990784,0.05344823747873306,0.05824889987707138,0.06569739431142807,0.04692903906106949,0.04663675278425217,-0.07358139753341675,0.06730788201093674,0.010907873511314392,0.002723582088947296,-0.02582281455397606,-0.05752282962203026,0.01387827843427658,0.07564715296030045,0.032333195209503174,-0.03730187565088272,0.04591693729162216,0.0442831888794899,-8.556246757507324e-05,0.02146018296480179,0.02610895037651062,-0.03784880042076111,-0.012631483376026154,-0.019549034535884857,0.08378959447145462,0.07136660069227219,0.05587673932313919,-0.04191526025533676,0.05094040185213089,-0.08133712410926819,0.05158666521310806,0.07748023420572281,-0.012923158705234528,-0.019814565777778625,-0.0039495378732681274,0.02606528252363205,-0.05479516088962555,0.028939515352249146,-0.059417642652988434,0.0024766549468040466,-0.08503361791372299,0.0034662559628486633,-0.07837362587451935,0.054663293063640594,-0.0357903316617012,0.027474544942378998,-0.07155259698629379,-0.0037986189126968384,0.013294778764247894,-0.03894669562578201,0.023834407329559326,0.06022638827562332,-0.07967864722013474,-0.022628054022789,-0.03084084764122963,-0.06547974050045013,0.027021169662475586,-0.034771353006362915,-0.05319088324904442,0.04327567666769028,-0.00718485563993454,-0.0670543760061264,0.06057966500520706,-0.01231936365365982,0.07821952551603317,0.006234876811504364,-0.05551978573203087,0.03861472010612488,-0.08028961718082428,-0.07412270456552505,-0.058337755501270294,0.009605593979358673,0.05307232588529587,0.043192289769649506,0.018531955778598785,-0.05904946103692055,-0.019409500062465668,-0.04700785502791405,-0.02841348573565483,0.07964017242193222,0.04493298381567001,-0.05725415050983429,0.08115238696336746,-0.005123957991600037,0.06319626420736313,-0.0013484209775924683,0.0454348549246788,-0.06092800199985504,-0.07189609855413437,-0.005949169397354126,0.034510910511016846,-0.00672459602355957,0.04432857781648636,0.07633274048566818,0.0680827870965004,-0.060689087957143784,-0.07794112712144852,-0.05574984475970268,-0.00446309894323349,0.048123009502887726,-0.08166521042585373,-0.06084025278687477,0.011904530227184296,0.06812571734189987,-0.06140492111444473,-0.08535655587911606,-0.005090691149234772,-0.0825975090265274,-0.042552731931209564,0.06614432483911514,0.05078364163637161,0.03993525356054306,-0.04476095363497734,-0.0733310803771019,0.05036679655313492,0.04260805994272232,0.02263706922531128,-0.0571073442697525,0.011021867394447327,-0.0828002542257309,0.03703013062477112,0.04896286875009537,0.030755922198295593,0.07849279791116714,-0.043421465903520584,0.07258842140436172,-0.07851327955722809,-0.0623294934630394,-0.007122218608856201,-0.045341260731220245,0.014168232679367065,-0.012514628469944,0.07522449642419815,0.06618786603212357,0.019743211567401886,0.042706198990345,-0.05620947480201721,0.0479106530547142,0.06833874434232712,-0.045237958431243896,0.031459592282772064,-0.027585390955209732,-0.014351069927215576,-0.01607995480298996,-0.03547506406903267,0.03768458962440491,0.06653360277414322,-0.02085106074810028,0.08514649420976639,0.05184685438871384,-0.03465653583407402,0.03139457851648331,0.04645589739084244,-0.010722361505031586,-0.05608304589986801,0.08365271240472794,-0.03288353234529495,0.06890987604856491,-0.06732787936925888,-0.06480821222066879,-0.037696000188589096,-0.07119519263505936,-0.06848682463169098,0.059932075440883636,0.018704727292060852,0.007347226142883301,-0.0018489733338356018,-0.025120839476585388,-0.04963068291544914,0.08262712508440018,0.03745976835489273,0.06166333705186844,0.032913319766521454,0.02689308673143387,-0.012235641479492188,0.045518599450588226,0.0553571954369545,-0.033130377531051636,0.01836968958377838,0.08375420421361923,-0.04085796698927879,-0.08250914514064789,0.056571684777736664,0.028679996728897095,-0.044669464230537415,-0.01950935274362564,-0.07961492240428925,0.08063972741365433,0.0188111811876297,0.05107330530881882,-0.020232893526554108,0.03695592284202576,0.05645830184221268,-0.03932565078139305,0.054942257702350616,-0.08571115881204605,-0.022508762776851654,-0.0747620165348053,-0.04647855460643768,-0.054257724434137344,0.04784376174211502,0.07468291372060776,-0.030679091811180115,0.012579046189785004,0.07250306755304337,-0.06836706399917603,0.07983312755823135,0.04548405855894089,-0.04088431969285011,-0.0015658214688301086,0.03480304032564163,-0.014357469975948334,0.04025664180517197,0.08362438529729843,0.055683426558971405,-0.04056013375520706,-0.02121339738368988,0.05491036921739578,0.023064173758029938,-0.062333762645721436,0.016360431909561157,0.057945944368839264,-0.07961644977331161,-0.07676432281732559,-0.03052547574043274,0.0843392089009285,-0.07281927764415741,0.028549477458000183,0.06972607225179672,-0.026097889989614487,-0.042227789759635925,0.028615087270736694,-0.006938092410564423,0.013089008629322052,-0.053867075592279434,-0.048129547387361526,-0.02670491859316826,-0.05037599802017212,-0.0512649342417717,-0.010018326342105865,-0.05243228003382683,0.03127173334360123,-0.026273157447576523,-0.07490741461515427,0.02569197118282318,0.05558774620294571,-0.02698543667793274,0.06833108514547348,0.07088936120271683,-0.07997060567140579,0.07036098092794418,0.04013914614915848,-0.053641512989997864,0.06962469965219498,-0.04120083525776863,-0.08027897030115128,-0.004992865025997162,0.04248826950788498,-0.057164646685123444,-0.04594023525714874,0.008013933897018433,0.05469416826963425,-0.0817883238196373,-0.005523867905139923,0.08247246593236923,-0.038601841777563095,0.07186827808618546,0.034363754093647,-0.04405583068728447,-0.05162861570715904,-0.042786285281181335,0.027581632137298584,-0.020884059369564056,0.07621029764413834,-0.06661441922187805,0.0661424770951271,-0.027782104909420013,-0.00586884468793869,-0.07185351848602295,0.07166338711977005,-0.07112886756658554,-0.027304772287607193,-0.07724316418170929,0.05615682154893875,-0.060348182916641235,-0.03974320366978645,-0.08108187466859818,0.08022638410329819,-0.07577423006296158,-0.05051851645112038,0.0364188477396965,-0.03943842276930809,0.011516392230987549,-0.008776545524597168,-0.009336650371551514,-0.053369320929050446,0.03433895856142044,-0.021555326879024506,0.032430000603199005,0.07273242622613907,-0.06510666012763977,0.06446347385644913,-0.008703559637069702,-0.06271088123321533,-0.08141572773456573,-0.0457402728497982,0.06080562621355057,0.046205200254917145,0.061106227338314056,0.031753599643707275,-0.023083247244358063,-0.0629761666059494,-0.06716794520616531,0.0678829625248909,0.001525282859802246,-0.026923470199108124,0.04728841036558151,-0.033797737210989,-0.08255792409181595,-0.04112893342971802,0.04635482281446457,-0.07113103568553925,-0.06140322610735893,-0.01771281659603119,0.020670272409915924,-0.020592279732227325,0.07025688141584396,0.050655923783779144,0.05243643373250961,0.0010608062148094177,-0.006276972591876984,-0.029025625437498093,-0.0715981274843216,-0.034876495599746704,0.01328536868095398,0.08431639522314072,-0.05676101893186569,0.05753501504659653,-0.0024954602122306824,0.06514456123113632,-0.06945455074310303,-0.02507263422012329,-0.03373485058546066,0.08065561205148697,-0.02895217016339302,-0.01306810975074768,-0.05381404235959053,-0.0070334672927856445,0.0766385868191719,0.014161936938762665,-0.03829217329621315,-0.035785406827926636,0.03201301395893097,0.07453974336385727,0.008943550288677216,-0.02303873747587204,-0.03779911994934082,-0.07445195317268372,0.038324907422065735,-0.06634163111448288,-0.05575098842382431,0.01991206407546997,-0.040087196975946426,0.03641144931316376,-0.07606792449951172,-0.08252427726984024,0.06800832599401474,-0.019365236163139343,0.03247395157814026,-0.024879392236471176,0.0649108961224556,-0.07971473038196564,0.0020890310406684875,-0.026793770492076874,0.07723542302846909,0.008827917277812958,-0.08146873861551285,0.031784817576408386,0.0628044530749321,0.030119575560092926,-0.06857794523239136,-0.0036780163645744324,-0.026374846696853638,0.008015893399715424,0.0638328418135643,0.046702928841114044,-0.0040467530488967896,-0.03957688808441162,-0.05050279572606087,-0.0805998221039772,0.03270582854747772,0.00184737890958786,-0.04679975286126137,0.05125495046377182,0.02833988517522812,0.00014327466487884521,0.0833604708313942,-0.02080436795949936,-0.08435697853565216,-0.03524297848343849,0.041499651968479156,-0.012213461101055145,-0.043563105165958405,-0.020047113299369812,-0.022959761321544647,0.06603186577558517,-0.011359773576259613,-0.059652768075466156,0.05937247723340988,-0.007244020700454712,0.06168251484632492,-0.04685511440038681,-0.030977822840213776,-0.017939887940883636,0.059207700192928314,0.01319480687379837,0.05495908111333847,-0.0822664350271225,0.025246120989322662,0.009781494736671448,-0.05116385966539383,-0.02650681510567665,-0.03646848723292351,-0.005438081920146942,0.07959999889135361,-0.06580813974142075,0.07544305175542831,-0.03786137327551842,0.036934636533260345,0.04136566072702408,-0.06625917553901672,-0.002044588327407837,-0.03129996359348297,-0.013261333107948303,-0.0352814756333828,-0.07207486778497696,0.04499854892492294,-0.05957573652267456,-0.07413510978221893,-0.014136157929897308,0.0693681463599205,-0.05308571830391884,-0.058763280510902405,-0.07370326668024063,-0.035786017775535583,-0.05691005289554596,0.002133376896381378,-0.0425160750746727,-0.025474585592746735,0.016120001673698425,0.011558793485164642,0.002725355327129364,-0.07340077310800552,0.06551028043031693,0.0020046979188919067,-0.03898586705327034,-0.03581629693508148,-0.08140581101179123,-0.06651796400547028,0.0711534395813942,0.025065474212169647,-0.020300008356571198,-0.021933667361736298,0.023066096007823944,-0.019837886095046997,-0.05540161952376366,0.0553845539689064,0.07190690189599991,0.08449447900056839,-0.026508677750825882,-0.08061537891626358,0.054344020783901215,0.051849521696567535,0.06445769220590591,-0.003933735191822052,-0.04385705292224884,0.005568519234657288,0.01357334852218628,0.04287926107645035,0.03503130376338959,0.031154952943325043,-0.007994815707206726,0.07645716518163681,0.06202057749032974,-0.005952745676040649,0.07275036722421646,0.027553170919418335,0.03169245272874832,-0.03744615241885185,-0.03166012838482857,-0.058327578008174896,-0.026488598436117172,-0.08338426053524017,-0.006694398820400238,-0.0005842968821525574,0.005959369242191315,0.016085103154182434,0.028691545128822327,-0.026712626218795776,0.00039048492908477783,-0.043193720281124115,0.005900755524635315,-0.0501638688147068,0.07518888264894485,-0.001788109540939331,-0.012001022696495056,-0.05267344042658806,0.057911165058612823,-0.0634569302201271,0.07783813029527664,0.01704379916191101,-0.08404949307441711,-0.009558960795402527,-0.05166531354188919,0.046455927193164825,0.014249049127101898,-0.01789850741624832,-0.05060561001300812,-0.05422059819102287,-0.06553179025650024,-0.009238459169864655,-0.030255142599344254,-0.040856923907995224,-0.053806763142347336,0.06792809814214706,0.05858535319566727,0.00025919079780578613,0.003358393907546997,0.0706549659371376,-0.07391486316919327,-0.028643809258937836,0.0793098583817482,0.0727984681725502,0.0439164862036705,0.018168680369853973,-0.08054249733686447,0.04757920652627945,-0.030881572514772415,0.05287622660398483,0.08103775233030319,-0.005841545760631561,0.06958984583616257,-0.06110641360282898,-0.0826999768614769,-0.08545979857444763,0.03391382098197937,-0.03881916403770447,0.06284678727388382,0.028356075286865234,-0.03935758396983147,-0.047071948647499084,-0.017956897616386414,-0.06867118924856186,0.02588053047657013,-0.08427596092224121,-0.041826553642749786,0.011007845401763916,0.029259324073791504,-0.07458505034446716,-0.07297447323799133,-0.06416924297809601,0.08114155381917953,0.020062774419784546,0.02849961817264557,0.06256582587957382,0.07184680551290512,0.07663770765066147,0.060226716101169586,0.0051895007491111755,-0.06920547783374786,0.019239529967308044,-0.01998976618051529,-0.0387745164334774,-0.07987452298402786,-0.05673227459192276,0.08303303271532059,0.0002646893262863159,0.01341799646615982,0.0653025284409523,0.061451978981494904,-0.02188684791326523,0.0439688041806221,0.01915012300014496,-0.044956378638744354,0.05620653182268143,-0.0071334391832351685,0.002649962902069092,-0.013791650533676147,-0.06567228585481644,-0.03150638937950134,0.0591002032160759,-0.048311296850442886,-0.06583400070667267,-0.054687462747097015,-0.022240206599235535,-0.08432318270206451,0.045516036450862885,-0.04150451347231865,-0.01293276995420456,-0.012416675686836243,-0.03740596026182175,0.014276936650276184,0.03859992325305939,-0.07508421689271927,-0.08561109006404877,0.03646121174097061,-0.03340647369623184,0.03481210023164749,0.07735232263803482,0.02515232563018799,0.0008143782615661621,-0.018655575811862946,0.03866683691740036,0.07513605803251266,0.01613909751176834,0.03202693909406662,0.07727549225091934,-0.027031783014535904,-0.021150507032871246,0.05180586129426956,0.026152148842811584,0.06897509843111038,0.023259207606315613,0.04238324612379074,0.013773724436759949,-0.07778503745794296,-0.04632967710494995,-0.03001933917403221,0.020971789956092834,-0.027949973940849304,-0.08476120233535767,-0.04509243369102478,-0.07513268291950226,-0.034008290618658066,-0.0568486824631691,0.05344895273447037,-0.018194906413555145,0.08419767767190933,0.00027938932180404663,-0.08052799850702286,-0.008228883147239685,-0.04287486895918846,0.027426399290561676,0.002642698585987091,-0.04989974945783615,-0.08550255000591278,-0.04253840073943138,0.04748152941465378,0.004764236509799957,-0.07471220940351486,-0.015691429376602173,0.0634739026427269,-0.07988370209932327,0.07336577028036118,0.030811205506324768,0.07814853638410568,-0.05494377017021179,-0.05047650262713432,0.06638520210981369,-0.07449202239513397,-0.07302480936050415,-0.08481306582689285,-0.04328451305627823,0.07696697860956192,0.00861436128616333,-0.06921281665563583,0.03810333460569382,0.01312672346830368,0.08355963975191116,0.06671955436468124,0.0017809569835662842,-0.06099638342857361,-0.06341008841991425,0.04726586490869522,0.060023508965969086,-0.009372226893901825,0.028471916913986206,0.04023445397615433,-0.07754821330308914,0.01475343108177185,-0.028253957629203796,-0.07399694621562958,-0.030713092535734177,-0.011637769639492035,-0.04349459707736969,-0.06673863530158997,0.04218394309282303,0.022001318633556366,0.02475043386220932,0.030936241149902344,0.0551014319062233,-0.05666746199131012,-0.02943408116698265,-0.071475088596344,-0.05119744688272476,0.003355652093887329,-0.018450401723384857,-0.03915058821439743,-0.06643256545066833,-0.032058198004961014,0.006925992667675018,-0.006759434938430786,0.061039768159389496,0.026247091591358185,-0.004247330129146576,0.06660235673189163,0.05725056678056717,-0.07842942327260971,-0.07249147444963455,-0.01764918863773346,-0.04797668382525444,-0.05922039598226547,0.022863514721393585,-0.03582003712654114,-0.02986234799027443,-0.01925674080848694,0.0004658997058868408,-0.04974083974957466,-0.05823336914181709,-0.0672951489686966,0.02442481368780136,-0.03704709932208061,0.03218403458595276,0.007121928036212921,-0.021619625389575958,0.042696692049503326,0.021982021629810333,-0.018797077238559723,0.06789670139551163,0.02629188448190689,0.05539906769990921,-0.027651671320199966,-0.012785881757736206,0.01320502907037735,0.013390310108661652,0.03383674472570419,0.0624193474650383,0.07466719299554825,-0.04031803458929062,-0.058419883251190186,-0.05435978248715401,0.061118192970752716,0.027118220925331116,-0.02166854590177536,0.07442592829465866,0.06678742915391922,-0.05250007286667824,0.035496875643730164,-0.055292509496212006,0.01650404930114746,-0.012511089444160461,0.03944461792707443,-0.009652882814407349,-0.0617421492934227,0.015971846878528595,0.0693240687251091,-0.07506806403398514,0.03759680688381195,0.03123650699853897,0.058854348957538605,-0.061179667711257935,0.06482744961977005,0.03796201944351196,0.053158096969127655,-0.04036971554160118,-0.026232946664094925,0.0316663458943367,0.018808439373970032,-0.053042151033878326,0.048329614102840424,-0.02859051153063774,-0.05864838510751724,-0.07111003994941711,0.03649388253688812,-0.04752141237258911,0.061433322727680206,0.02000477910041809,-0.04287724196910858,0.04207437485456467,-0.06780555844306946,0.06524009257555008,-0.04606752097606659,-2.123415470123291e-06,-0.020928382873535156,0.046761296689510345,0.0539892241358757,-0.028413526713848114,0.03983636945486069,-0.018808498978614807,-0.06542535871267319,-0.007241874933242798,-0.06809617578983307,0.06458541005849838,-0.026334449648857117,0.008237853646278381,0.016704365611076355,0.028237320482730865,-0.027259714901447296,-0.012203790247440338,-0.04076242819428444,-0.004694849252700806,0.02187822014093399,-0.04812445491552353,-0.0755545124411583,0.06770490854978561,-0.008954383432865143,0.06531407684087753,-0.03380352258682251,-0.01906561106443405,0.014878958463668823,0.07398190349340439,0.08061454445123672,0.0495312437415123,-0.04802938923239708,-0.037012550979852676,0.008834563195705414,-0.015065960586071014,0.0794338509440422,0.027982234954833984,-0.077561154961586,-0.07869991660118103,-0.03413202241063118,-0.05413724482059479,0.06372242420911789,-0.03274203836917877,-0.011843092739582062,0.006930813193321228,0.06831421703100204,-0.01806584745645523,-0.07906161993741989,0.05086324363946915,0.08104147762060165,-0.07000128924846649,-0.012568600475788116,0.08308696001768112,-0.08568143844604492,0.0352170392870903,0.024994783103466034,0.0819261446595192,-0.04327676445245743,0.011341288685798645,0.03790269047021866,0.0014454275369644165,-0.06969112902879715,-0.060100071132183075,-0.046274930238723755,0.05200041085481644,-0.07163498550653458,0.004334300756454468,-0.037818074226379395,-0.016236089169979095,0.07199182361364365,0.03698667138814926,-0.03733912482857704,-0.03129846975207329,0.08339319378137589,-0.06923925131559372,-0.06744585931301117,-0.0060157328844070435,0.03781195729970932,0.052516303956508636,0.052892185747623444,-0.024016790091991425,-0.027867235243320465,0.031032592058181763,-0.05178803950548172,-0.04717795178294182,-0.03524475917220116,0.07948840409517288,0.059469155967235565,-0.08016356080770493,-0.07407179474830627,0.06437837332487106,0.07645770162343979,-0.017824500799179077,0.05337422341108322,-0.0395793654024601,-0.0046728551387786865,-0.048120468854904175,-0.0044174641370773315,-0.03240983933210373,-0.045657042413949966,-0.025524839758872986,-0.0010331496596336365,0.05685732513666153,0.01758493483066559,-0.0036018192768096924,-0.05587925761938095,-0.05133542791008949,0.0077562108635902405,0.010695844888687134,0.037897296249866486,0.07861866801977158,-0.03820500150322914,-0.07243382185697556,-0.027190040796995163,0.02329014241695404,0.06115662306547165,-0.012210950255393982,-0.061496391892433167,0.015610143542289734,-0.029871217906475067,0.03491628170013428,-0.04701971262693405,-0.03143830969929695,0.04085799306631088,-0.006737738847732544,-0.06794094294309616,0.0727948322892189,-0.017209991812705994,0.03380315750837326,-0.02736692503094673,-0.017153747379779816,-0.017844006419181824,-0.026250872761011124,0.026304930448532104,-0.08296294510364532,0.014367036521434784,-0.08516912162303925,-0.04683796316385269,0.006041005253791809,-0.08386482298374176,-0.018497608602046967,0.08037670701742172,-0.03987044841051102,0.012588754296302795,-0.08556359261274338,0.026938699185848236,-0.059593912214040756,0.009137444198131561,0.03780584782361984,-0.06387695670127869,0.05610386282205582,0.023308850824832916,0.05910702794790268,0.08223360031843185,0.005702897906303406,0.022350281476974487,0.003990590572357178,-0.08061296492815018,0.07007554918527603,0.002426058053970337,-0.08061850816011429,-0.04652127996087074,0.053297676146030426,-0.06991787254810333,0.022288724780082703,-0.06815652549266815,0.02769828587770462,-0.08071880787611008,0.047101013362407684,0.043066106736660004,-0.0470307320356369,0.047706522047519684,0.08146516233682632,-0.01431700587272644,0.01881759613752365,-0.06909685581922531,0.011305555701255798,-0.05722935497760773,0.04128848761320114,-0.04354456067085266,-0.08369231224060059,0.035567738115787506,0.010932303965091705,0.0031183138489723206,0.055604733526706696,0.035710111260414124,-0.08500483632087708,0.07538645714521408,0.023721210658550262,-0.06506433337926865,0.0078558549284935,0.03580714017152786,-0.055151648819446564,0.03962448984384537,-0.06064590811729431,0.02332644909620285,0.04733573645353317,-0.0770425871014595,-0.03750760853290558,-0.06242985278367996,0.02666991949081421,0.03265693038702011,-0.08085478097200394,0.024135038256645203,-0.07994143664836884,-0.0023777857422828674,0.002873539924621582,0.023749731481075287,-0.02485596388578415,0.041756145656108856,0.02016931027173996,-0.014661185443401337,0.06477991491556168,0.08213897794485092,-0.05513952299952507,0.0681115910410881,0.01806766539812088,0.02332931011915207,0.061550073325634,-0.04696819186210632,0.0067914873361587524,0.04418370872735977,-0.03882838413119316,-0.002268187701702118,-0.031424202024936676,-0.0024638772010803223,0.008624739944934845,-0.04408631473779678,-0.06683255732059479,0.023859694600105286,-0.050683826208114624,-0.03511843457818031,-0.03450222313404083,0.013524219393730164,0.05793716758489609,-0.02981187030673027,0.020256713032722473,-0.025706913322210312,0.056732408702373505,-0.03190084174275398,0.04547085613012314,0.027383282780647278,-0.004262171685695648,-0.05136451870203018,0.06322454661130905,-0.058194443583488464,0.0009714663028717041,0.053320758044719696,0.06498170644044876,0.0328252837061882,-0.06188105046749115,0.06380019336938858,-0.08391755074262619,0.047893621027469635,0.007721453905105591,-0.07914085686206818,-0.02307245135307312,-0.07277876138687134,0.05817458778619766,0.006895281374454498,-0.06011507660150528,-0.009035266935825348,-0.015185624361038208,0.04510054737329483,-0.028546597808599472,0.06422574073076248,-0.01792682707309723,-0.054282113909721375,-0.07583460211753845,-0.02327689528465271,0.02979416400194168,-0.0716957300901413,0.08167731016874313,-0.07123161852359772,-0.01713397353887558,0.036937415599823,-0.02681208774447441,-0.08030951023101807,-0.07282795011997223,0.06660746783018112,0.046902306377887726,-0.06527802348136902,-0.0817989781498909,-0.009440280497074127,-0.04480069503188133,-0.049556102603673935,-0.017890900373458862,0.04535830765962601,0.030378438532352448,0.03442642092704773,0.042866550385951996,-0.022002913057804108,-0.06386049836874008,-0.05755247175693512,0.050848789513111115,0.006665386259555817,-0.060928262770175934,-0.05195498839020729,0.05489998310804367,-0.051269881427288055,-0.015307776629924774,-0.016399189829826355,-0.012977562844753265,0.049267806112766266,0.05496884137392044,-0.07051879167556763,-0.030915100127458572,-0.01459617167711258,0.02525094896554947,0.008086591958999634,0.052255891263484955,-0.010941199958324432,-0.026989523321390152,-0.005056984722614288,-0.05499909073114395,0.01651015877723694,0.061627961695194244,0.07563867419958115,0.009199284017086029,-0.06742431223392487,0.060758911073207855,-0.018318086862564087,0.02668830007314682,0.061190612614154816,-0.059359192848205566,-0.0025998130440711975,-0.01263420283794403,-0.03836526349186897,-0.054758891463279724,-0.03131403028964996,-0.031072400510311127,0.014845289289951324,-0.043744344264268875,-0.010349050164222717,-0.022784002125263214,0.07866788655519485,0.045444928109645844,0.05668819695711136,0.03776849806308746,0.01610562950372696,0.059505634009838104,-0.0013408958911895752,-0.017389900982379913,0.021541282534599304,-0.07669632136821747,-0.03571178764104843,0.031217940151691437,-0.035393696278333664,0.013608269393444061,-0.026158854365348816,-0.07829228043556213,-0.019435524940490723,0.022690266370773315,-0.04093121737241745,-0.08070919662714005,-0.08447745442390442,-0.020320355892181396,0.04126305133104324,0.018552005290985107,0.009890586137771606,0.03972119837999344,0.03867846727371216,-0.08132626116275787,0.07156472653150558,-0.026739653199911118,-0.04328436776995659,0.08140703290700912,-0.04566311463713646,0.07476788014173508,0.036323413252830505,0.04061799496412277,-0.005482770502567291,0.048557691276073456,0.012310713529586792,-0.016529686748981476,-0.043764274567365646,0.05042225867509842,0.07377076894044876,-0.06077350303530693,-0.008693255484104156,0.025221772491931915,0.038371965289115906,0.04917561262845993,0.030578017234802246,0.05427565425634384,-0.020787157118320465,-0.07771951705217361,-0.04796638339757919,-0.03196857124567032,0.026385150849819183,0.08206430822610855,-0.06670672446489334,0.026820264756679535,-0.05562546104192734,0.0395231768488884,-0.07166771590709686,-0.046185340732336044,-0.03073412925004959,0.07441546767950058,-0.002048201858997345,-0.03489931300282478,-0.011702068150043488,0.016944460570812225,0.0801117941737175,-0.018885187804698944,0.02165711671113968,-0.011719264090061188,0.036947332322597504,0.08560863882303238,0.00063362717628479,0.035584621131420135,0.08315817266702652,-0.026961639523506165,0.06985489279031754,0.047077082097530365,0.020971089601516724,0.029712490737438202,0.04432479292154312,0.0024238675832748413,0.010711997747421265,0.08002571016550064,0.03813953697681427,-0.026986803859472275,0.08378499001264572,0.019491523504257202,0.017881907522678375,0.001958124339580536,-0.027929775416851044,-0.03174581006169319,0.06115429848432541,-0.06345654278993607,0.07354488223791122,-0.08393415063619614,-0.0058202072978019714,-0.07606618851423264,0.05344540625810623,0.04702203720808029,0.06040406972169876,-0.00957132875919342,-0.060952574014663696,-0.06747031211853027,-0.002061493694782257,-0.02166818082332611,-0.018519192934036255,-0.018535472452640533,0.029325827956199646,0.04660489410161972,0.004403665661811829,0.009512923657894135,0.030058160424232483,0.06504648178815842,-0.04543669521808624,0.012761183083057404,0.0005703344941139221,0.004023298621177673,-0.02383735030889511,-0.04239163175225258,0.0006653591990470886,-0.029805675148963928,0.04115549474954605,-0.040571440011262894,0.018075577914714813,-0.08030182123184204,0.024586036801338196,0.06454349309206009,-0.05222327634692192,-0.02684645727276802,-0.02743719145655632,0.08185934275388718,0.019568942487239838,-0.04649879410862923,0.040261246263980865,0.08252356201410294,-0.07810736447572708,0.028888486325740814,-0.03530852496623993,-0.07669994235038757,-0.023142188787460327,-0.03105488047003746,-0.01347581297159195,0.009277403354644775,-0.02808799222111702,0.029564209282398224,-0.04709562286734581,-0.036331020295619965,0.07900606840848923,-0.06635402143001556,0.01729949563741684,-0.0677766278386116,0.012874916195869446,0.028248459100723267,-0.0818047821521759,-0.027706749737262726,-0.01529984176158905,-0.057227738201618195,-0.021963968873023987,0.07470249384641647,0.0731164738535881,0.03868687152862549,-0.06321918219327927,0.07339305430650711,-0.0016804710030555725,0.008939377963542938,-0.04618779569864273,0.023406527936458588,-0.05626264959573746,0.005821578204631805,0.004077516496181488,-0.013046175241470337,-0.026203177869319916,0.023703016340732574,-0.06278607249259949,-0.016689352691173553,-0.01756487786769867,0.052744947373867035,0.030467331409454346,-0.013025611639022827,0.08027929812669754,0.017886735498905182,-0.016935870051383972,0.060884006321430206,0.056412629783153534,-0.008180283010005951,0.035941965878009796,0.08166036754846573,0.06066060811281204,0.050830088555812836,0.04312586039304733,-0.01607157289981842,-0.026297099888324738,0.027269326150417328,0.04122232645750046,-0.05194110795855522,0.051577143371105194,-0.07581378519535065,-0.03155858442187309,0.008073769509792328,0.08432500809431076,0.035496652126312256,0.06927784532308578,-0.06286707520484924,0.08286628872156143,0.033188700675964355,0.08441080898046494,0.07967773824930191,-0.055490389466285706,0.06863073259592056,-0.04427170008420944,0.053475283086299896,-0.07206480950117111,-0.0627932921051979,0.010101065039634705,-0.0665428414940834,0.012915678322315216,-0.01924234628677368,-0.070870041847229,-0.016590505838394165,0.002902403473854065,-0.03992294892668724,0.04999440163373947,0.032477982342243195,0.05996982008218765,0.06594940274953842,0.000850193202495575,0.009607620537281036,0.059993989765644073,0.03373284637928009,0.08052525669336319,0.041905663907527924,-0.0820300355553627,-0.029375426471233368,0.032125458121299744,0.049256764352321625,-0.03147831931710243,0.04184212535619736,-0.03423565253615379,0.07488555461168289,0.05537722259759903,0.08115940541028976,-0.03210550546646118,0.028453081846237183,-0.02567606419324875,0.023259885609149933,0.07730286568403244,-0.05013181269168854,-0.026154808700084686,0.012956790626049042,0.011330842971801758,-0.006850980222225189,-0.07028254121541977,-0.04640139639377594,-0.0723576694726944,0.07362719625234604,-0.023182503879070282,0.013022974133491516,0.07316368073225021,-0.03657929599285126,0.05011875182390213,-0.06659980118274689,0.06303637474775314,-0.019197680056095123,0.027879156172275543,0.07709424942731857,-0.013504184782505035,0.012800104916095734,-0.061160288751125336,0.013714969158172607,0.001469835638999939,0.0833040401339531,0.0005672052502632141,0.013582959771156311,0.020050570368766785,-0.07445185631513596,0.06310606747865677,0.030810467898845673,-0.021593332290649414,-0.05711551755666733,-0.03126424923539162,-0.0005317926406860352,-0.0716802328824997,-0.002969503402709961,0.06246418505907059,0.06729627400636673,0.056366704404354095,-0.005472920835018158,0.0854097530245781,-0.0379849374294281,0.016141675412654877,-0.06288107484579086,0.034075431525707245,-0.03566490858793259,-0.05850493162870407,0.04214669018983841,0.03698914498090744,0.06387787312269211,0.04029301553964615,-0.06782138347625732,-0.05421217530965805,-0.028026126325130463,-0.03610946610569954,-0.016575954854488373,0.06726012378931046,0.054565124213695526,0.02545209974050522,0.025546610355377197,0.04691406339406967,0.01033637672662735,0.0435599610209465,-0.011565707623958588,0.07303332537412643,0.05836869031190872,-0.02489282563328743,0.0774155780673027,0.026682578027248383,0.06572432070970535,-0.0037657618522644043,-0.027005407959222794,0.07554220408201218,0.0544983372092247,-0.033371128141880035,-0.07112355530261993,-0.07707145065069199,-0.00419752299785614,-0.049580883234739304,0.06203732639551163,-0.06598299741744995,-0.041769616305828094,-0.07138916850090027,-0.06361210346221924,-0.009884968400001526,-0.006034523248672485,0.04061133414506912,0.007337659597396851,0.039853535592556,0.007813066244125366,-0.05124111846089363,-0.059126291424036026,0.05404479056596756,-0.007038436830043793,0.05069238692522049,-0.05378192663192749,0.07270415872335434,0.014551997184753418,0.03477059304714203,-0.07169026881456375,0.03441513329744339,-0.01592351496219635,0.08426978439092636,0.04226309806108475,0.05188746005296707,-0.07014282047748566,0.03335399180650711,-0.05278199911117554,0.07160424441099167,0.06747110933065414,0.046673618257045746,0.044650472700595856,-0.0839586853981018,-0.07082732021808624,-0.04407752305269241,-0.03778989985585213,0.002736911177635193,0.03872571140527725,0.026293374598026276,0.055051885545253754,-0.08149082213640213,-0.0812435895204544,-0.03868699446320534,-0.03306638449430466,-0.020618446171283722,-0.0062035322189331055,-0.018020376563072205,0.07198216766119003,-0.08267842233181,0.02140393853187561,-0.02238614112138748,0.00985381007194519,0.026042915880680084,-0.07407044619321823,0.08072596043348312,-0.04893118515610695,0.04501410573720932,0.0645291730761528,0.04740903526544571,-0.019691117107868195,-0.03760281577706337,-0.0008900389075279236,0.02012196183204651,0.016250193119049072,-0.041201163083314896,0.037320010364055634,-0.0593116357922554,-0.04482293874025345,0.003438107669353485,0.010759405791759491,-0.04947776347398758,-0.08333251625299454,-0.025347668677568436,-0.07081218808889389,0.0003135502338409424,-0.07459893077611923,-0.029145367443561554,0.06136129051446915,-0.02791701629757881,0.0396355465054512,0.07282193750143051,0.03867769241333008,-0.0845278948545456,0.073725126683712,-0.06090150400996208,0.07825905829668045,-0.051531240344047546,-0.020846910774707794,0.01955508440732956,-0.03621520474553108,0.025273844599723816,0.05341833084821701,0.0853537991642952,-0.018878929316997528,0.022335559129714966,0.032101601362228394,-0.06658986210823059,-0.014543533325195312,-0.0821659117937088,-0.02842342108488083,0.03060169517993927,-0.011037059128284454,-0.030926242470741272,0.08364678174257278,-0.03075993061065674,0.024788230657577515,0.05156183987855911,-0.012172453105449677,-0.07559537887573242,-0.026414450258016586,-0.04037327319383621,-0.046262722462415695,-0.07159557193517685,0.03926583379507065,0.04995419830083847,0.03529108315706253,-0.04535095393657684,0.03860926628112793,0.058489374816417694,-0.06135254353284836,-0.0027621984481811523,-0.014699317514896393,-0.05607699602842331,-0.027778323739767075,0.037855364382267,-0.04481551796197891,-0.02024839073419571,-0.018159538507461548,-0.07898202538490295,0.059672169387340546,-0.011577360332012177,0.05616741627454758,0.03489076346158981,0.08245987445116043,-0.00707157701253891,-0.004156865179538727,-0.08019258826971054,0.006826609373092651,-0.0055379718542099,0.04986760765314102,0.028268128633499146,0.07970084995031357,0.031870968639850616,0.07025682181119919,0.05561278015375137,0.06271163374185562,0.07483535259962082,-0.06008647382259369,-0.05046648532152176,-0.08099905401468277,-0.07050147652626038,-0.014865346252918243,0.018339037895202637,0.07675173133611679,-0.03773695230484009,0.035515010356903076,0.0007639005780220032,-0.06393510103225708,-0.013958275318145752,0.07905586808919907,0.039167679846286774,0.043126799166202545,0.012829162180423737,-0.07545729726552963,-0.0829758495092392,-0.07971139252185822,0.03880810737609863,0.008375078439712524,-0.01788739114999771,0.03694391995668411,0.037254057824611664,0.028980955481529236,0.03856651484966278,-0.04611577093601227,-0.04610360786318779,-0.0028380900621414185,0.06394226104021072,-0.03089332953095436,-0.07461871951818466,-0.0008780360221862793,0.03960152715444565,0.009703956544399261,-0.01563723385334015,0.040698908269405365,-0.03481786325573921,-0.07258310914039612,0.009392790496349335,-0.05230842903256416,0.03806755691766739,-0.017573200166225433,0.016144782304763794,-0.032352596521377563,-0.03027184307575226,-0.001833215355873108,0.008169062435626984,-0.0745367556810379,-0.004203110933303833,-0.06486181914806366,0.030101321637630463,-0.047509822994470596,0.04319033771753311,-0.06020016223192215,0.042920760810375214,-0.06296683847904205,-0.016917720437049866,-0.008950136601924896,-0.020698651671409607,0.000616028904914856,-0.06460648775100708,-0.03780617564916611,0.03876343369483948,0.017521008849143982,-0.05883536860346794,0.04644095152616501,0.045990221202373505,-0.08039636164903641,0.0638185665011406,0.013655535876750946,-0.07603820413351059,0.021481499075889587,-0.056643709540367126,0.021485857665538788,-0.00724976509809494,-0.009328432381153107,0.08121839910745621,-0.0030944570899009705,0.049239642918109894,0.08122532814741135,-0.07173693925142288,0.06626275926828384,0.004533693194389343,0.08099458366632462,-0.009249195456504822,0.037614040076732635,-0.08329042047262192,0.04277942329645157,-0.04796699434518814,-0.04109932854771614,0.04474038630723953,-0.000584237277507782,-0.024856068193912506,-0.019157670438289642,-0.008268766105175018,-0.06248190253973007,0.06187251955270767,-0.04526670277118683,-0.037194013595581055,-0.06038675829768181,-0.06493654102087021,-0.07365512102842331,0.0732870027422905,-0.077064648270607,0.03285490721464157,0.0844598188996315,0.021602697670459747,0.036573246121406555,-0.02289871871471405,-0.020031742751598358,0.03236708790063858,-0.07542984187602997,-0.003120340406894684,-0.015565499663352966,0.0718625858426094,-0.025483563542366028,0.04064062982797623,0.07481028884649277,0.06913626939058304,9.911507368087769e-05,-0.035446666181087494,0.052384279668331146,0.046107880771160126,-0.058942150324583054,-0.02697286382317543,0.06830663233995438,0.027815982699394226,0.00568012148141861,0.056467048823833466,0.024914659559726715,0.04077409952878952,0.01378527283668518,0.068753682076931,-0.017299368977546692,-0.015814244747161865,0.0769985243678093,0.05963210016489029,-0.008558422327041626,-0.057549428194761276,0.04672738164663315,-0.03804700821638107,0.07512342184782028,0.07525607198476791,0.029199175536632538,-0.028048697859048843,-0.06711108982563019,0.019888773560523987,0.04897921532392502,0.021727852523326874,0.06344936043024063,0.06675419956445694,0.009654827415943146,0.05960594862699509,0.048696257174015045,-0.026997722685337067,0.022971294820308685,0.040208958089351654,-0.04779784008860588,0.03616560995578766,-0.03784921020269394,0.05436881631612778,0.006548918783664703,-0.0607442669570446,0.025376170873641968,-0.05059031769633293,0.023169726133346558,-0.07266563922166824,0.06930064409971237,0.06270327419042587,-0.07632569223642349,0.03287357836961746,0.046875543892383575,0.0019482523202896118,0.017103739082813263,0.029764093458652496,0.040039412677288055,-0.026818405836820602,0.008709773421287537,0.011764422059059143,0.005616866052150726,-0.0031870901584625244,-0.033168669790029526,-0.0635819062590599,0.04049941152334213,0.06197398155927658,0.05308034271001816,-0.020747311413288116,0.0003742724657058716,-0.020181842148303986,0.071933813393116,0.07113080471754074,-0.08493029326200485,-0.08252568542957306,-0.06635354459285736,-0.0836167111992836,0.027606263756752014,-0.06210775300860405,-0.0855899304151535,-0.06952990591526031,-0.04513778164982796,-0.06846918165683746,0.00048504024744033813,0.03592398017644882,-0.024082355201244354,-0.033410318195819855,0.0481066033244133,-0.034913070499897,-0.0730421394109726,0.03380315750837326,0.06422256678342819,0.014408208429813385,-0.0832621306180954,-0.022041529417037964,0.009418323636054993,-0.061390429735183716,0.009849213063716888,0.07991161197423935,-0.00809478759765625,0.06870502978563309,-0.05946454033255577,-0.08411898463964462,0.047205276787281036,0.02326051890850067,0.07886747270822525,0.006323032081127167,0.04885242134332657,-0.05578140914440155,-0.04410029575228691,-0.02189316600561142,0.03723445534706116,-0.0780135840177536,-0.05628548562526703,-0.008641935884952545,-0.0003270655870437622,0.048886559903621674,-0.059911757707595825,0.032062798738479614,0.028580985963344574,-0.021031685173511505,0.07409895211458206,0.022794246673583984,-0.007618032395839691,-0.004836022853851318,-0.07094675302505493,-0.062746062874794,0.07180436700582504,0.031618788838386536,-0.009176939725875854,-0.08171863108873367,0.04829130321741104,0.06423547118902206,0.08335857838392258,-0.0010407119989395142,-0.010745011270046234,-0.06525188684463501,0.06363149732351303,-0.021976828575134277,0.031715407967567444,-0.04207523539662361,0.003078676760196686,0.07209647446870804,0.05941661447286606,0.012417413294315338,-0.03629068657755852,0.07012680917978287,-0.01436121016740799,0.075395368039608,-0.04963184893131256,-0.0792323648929596,-0.05747004225850105,-0.07010945677757263,0.02246256172657013,0.046286024153232574,-0.01119358092546463,-0.01610628515481949,-0.037772420793771744,0.009320482611656189,0.07829593867063522,0.04368274658918381,-0.03954058140516281,-0.05001838877797127,0.040025390684604645,0.005012698471546173,-0.04247093200683594,0.039638034999370575,0.005305379629135132,0.005181059241294861,0.07048187404870987,0.04657519608736038,0.06362570077180862,-0.07311417162418365,0.03360132873058319,0.013017222285270691,-0.049828603863716125,0.017741985619068146,-0.019069045782089233,0.04805580526590347,0.06674661487340927,-0.05213230103254318,-0.049238257110118866,0.06927940994501114,-0.062278442084789276,-0.05117722973227501,0.049523718655109406,-0.014066465198993683,-0.07289888709783554,0.0060904547572135925,0.028637409210205078,-0.016737014055252075,0.06883715838193893,-0.017591699957847595,0.06339577585458755,0.05694244056940079,0.016359448432922363,-0.0022847652435302734,0.08247668296098709,-0.061265408992767334,-0.0020723268389701843,0.011194318532943726,-0.010820575058460236,-0.04638616740703583,-0.06251567602157593,-0.012903720140457153,-0.01721452921628952,-0.03639163821935654,0.04658610373735428,-0.06114143878221512,-0.04079168662428856,0.04922730475664139,0.08238176256418228,-0.026093434542417526,-0.07605065405368805,-0.016343824565410614,0.06900648027658463,0.06934245675802231,0.05333941429853439,0.0817180648446083,0.08335047215223312,0.005267329514026642,-0.05344897136092186,0.0776694044470787,0.03749243915081024,-0.0686229020357132,0.053969793021678925,0.05450252443552017,0.06801537424325943,0.06828006356954575,-0.04373548924922943,-0.06197519600391388,-0.08103694021701813,-0.0023872926831245422,-0.020841248333454132,0.0009789690375328064,-0.05057837814092636,0.06694623082876205,-0.007994219660758972,0.04460286349058151,-0.05791840702295303,-0.07469236105680466,0.018850333988666534,-0.04274960979819298,0.008280649781227112,0.024561487138271332,0.04670620709657669,-0.05839095264673233,0.039975039660930634,-0.07593496143817902,0.04273497313261032,-0.00016870349645614624,0.08357845991849899,0.02385561168193817,0.08341402560472488,-0.046938832849264145,-0.040082599967718124,0.021231159567832947,-0.007382288575172424,0.039161317050457,-0.06300967186689377,-0.01701505482196808,-0.0760975107550621,0.06630691140890121,-0.022656187415122986,-0.04093407839536667,-0.06740732491016388,0.01509411633014679,-0.03784976154565811,0.03944496065378189,-0.009143881499767303,-0.0013304874300956726,-0.019840873777866364,-0.0458173044025898,-0.007269740104675293,0.0218348428606987,-0.05555024743080139,-0.014321953058242798,-0.03059091791510582,-0.03701508417725563,-0.07802249491214752,0.07297968119382858,-0.03049769252538681,-0.07215680181980133,-0.01962774246931076,-0.060207728296518326,-0.05404048413038254,-0.052473925054073334,-0.023682385683059692,-0.07511833310127258,-0.02582555264234543,0.07410968095064163,-0.04956168681383133,0.051858268678188324,-0.06372975558042526,-0.024215038865804672,-0.07952216267585754,-0.05785316973924637,-0.06389608979225159,-0.0424223355948925,0.07537088543176651,0.037561699748039246,0.05214478820562363,-0.06698676943778992,0.08118992298841476,-0.045080289244651794,0.02250729501247406,-0.01821742206811905,-0.027193617075681686,0.04303010553121567,0.08031123131513596,-0.02895556390285492,-0.053374696522951126,-0.052205633372068405,0.0038048550486564636,0.02464974671602249,0.06858349591493607,-0.04837547242641449,0.008653059601783752,0.009515270590782166,-0.04003463685512543,-0.06494140625,0.009105488657951355,0.04779326170682907,-0.07550029456615448,-0.0726839154958725,-0.019187964498996735,-0.05852518975734711,-0.023037880659103394,0.07241129130125046,0.0755775198340416,0.028926372528076172,-0.0016542226076126099,0.004500165581703186,0.07379915565252304,0.06644601374864578,0.07790491729974747,0.01825321465730667,0.00015231221914291382,0.05049099773168564,-0.055011849850416183,-0.045847319066524506,0.0020695924758911133,0.04185756295919418,-0.06566799432039261,-0.047046106308698654,-0.06045283377170563,-0.018765300512313843,0.04730051010847092,-0.08546552807092667,0.0733436718583107,-0.07227297127246857,-0.06517037749290466,-0.03908565640449524,0.006455384194850922,0.04785560816526413,-0.06047407537698746,0.018013671040534973,0.01775585114955902,0.034105829894542694,-0.027249716222286224,-0.040718924254179,-0.026274528354406357,-0.023777205497026443,-0.025439299643039703,-0.0015569105744361877,0.07295333594083786,-0.04299935698509216,0.06250555068254471,0.03699368238449097,-0.059511296451091766,-0.05583325773477554,0.024120710790157318,-0.026889491826295853,0.03473217785358429,0.0724470242857933,0.047917820513248444,0.005778521299362183,-0.055494844913482666,-0.0186641663312912,-0.06812841445207596,0.02290824055671692,0.08363153785467148,-0.04750753194093704,-0.009912259876728058,-0.020620740950107574,-0.0110696479678154,0.03235143423080444,-0.018373511731624603,-0.04230979084968567,0.07750041037797928,-0.07562991231679916,0.03432348370552063,-0.07018966227769852,-0.02153725177049637,0.013816900551319122,0.03130045533180237,0.003138042986392975,0.01741909235715866,-0.014499306678771973,0.03016972541809082,0.017089776694774628,0.06444767862558365,0.03190319240093231,-0.029476523399353027,-0.05376957729458809,-0.026717063039541245,-0.07608237862586975,0.07444428652524948,0.07908744364976883,0.003256663680076599,-0.06331275403499603,-0.06297753006219864,-0.029250819236040115,0.06487181037664413,0.056749098002910614,-0.0417565293610096,0.0486142560839653,-0.048859283328056335,0.04529059678316116,-0.054834865033626556,0.0341072604060173,-0.028856612741947174,-0.06733076274394989,0.045371659100055695,0.07979180663824081,0.08285563439130783,0.06940063089132309,0.08163394778966904,-0.03504039719700813,0.04794054478406906,-0.031479258090257645,-0.06297438591718674,0.0385134220123291,-0.028567083179950714,-0.0648467093706131,0.06067837029695511,-0.06526792049407959,0.06949629634618759,0.05994433909654617,0.07705044001340866,-0.0007936432957649231,0.03976646810770035,0.059680111706256866,0.08039704710245132,-0.057025156915187836,-0.05027889087796211,0.006461255252361298,0.03948723524808884,0.0011717379093170166,-0.012154333293437958,0.03897286206483841,-0.07914280146360397,-0.02908579260110855,-0.08135568350553513,0.058522649109363556,-0.08398037403821945,-0.046459805220365524,0.011467918753623962,0.024847663938999176,-0.06165323778986931,-0.00786646455526352,0.082499660551548,-0.02712036669254303,0.05972471088171005,-0.02513570338487625,0.08247404545545578,0.003448978066444397,-0.03624611720442772,0.08135706931352615,-0.07788163423538208,0.04258554428815842,0.0019855424761772156,-0.03464995324611664,-0.04877818003296852,0.00016455352306365967,-0.02416149526834488,0.019612468779087067,-0.04662323743104935,-0.03383766487240791,0.02916654944419861,0.04529532045125961,-0.08160561323165894,-0.06954607367515564,0.08063928037881851,-0.00861552357673645,-0.06417389214038849,0.0671459212899208,0.037541523575782776,0.02475852519273758,0.048543401062488556,0.08458397537469864,0.019545778632164,-0.039071161299943924,-0.038185007870197296,0.031010553240776062,-0.03326629102230072,0.024851873517036438,0.07841957360506058,-0.02498398721218109,-0.05500353127717972,-0.007847495377063751,-0.03146584704518318,0.026893310248851776,-0.027987487614154816,-0.023097246885299683,-0.05125397816300392,-0.03537529334425926,0.04050242155790329,-0.04112005978822708,-0.0317707322537899,0.019827499985694885,0.0056813061237335205,-0.06682609766721725,-0.08475188165903091,0.014345221221446991,0.018067829310894012,0.010494410991668701,-0.08476688712835312,0.06653200834989548,0.024917110800743103,-0.057659704238176346,0.011919699609279633,-0.0552641935646534,0.030785836279392242,0.068626768887043,0.08365275710821152,0.004294842481613159,-0.005236029624938965,-0.0325004905462265,-0.06040892004966736,-0.013289175927639008,0.04466988891363144,0.035152144730091095,0.027714312076568604,-0.059377141296863556,0.05126652866601944,-0.058800943195819855,0.06947474926710129,0.041243232786655426,0.06476671248674393,-0.003232516348361969,-0.0174667090177536,-0.04805408790707588,-0.05886818468570709,-0.06901945173740387,0.0575004443526268,0.02426750212907791,-0.04046318680047989,-0.0457022450864315,-0.009507261216640472,-0.06361524760723114,0.06613714247941971,0.023294106125831604,0.08032531291246414,-0.04246586188673973,-0.08073775470256805,0.0810239389538765,-0.023663781583309174,-0.00559002161026001,0.07842827588319778,0.030022136867046356,-0.014516502618789673,0.047474540770053864,0.0381113663315773,0.01014554500579834,-0.03907283768057823,-0.07309208810329437,-0.03290833160281181,-0.035756804049015045,-0.06336092203855515,-0.002153165638446808,-0.00447450578212738,-0.07265296578407288,0.07775374501943588,-0.05399869382381439,0.07517995685338974,0.004681706428527832,-0.030987288802862167,-0.006126768887042999,-0.024372417479753494,0.03739794343709946,0.044354505836963654,-0.03130313381552696,0.06704512983560562,0.08438920229673386,0.0758688822388649,-0.04029233381152153,-0.03761790320277214,0.015546485781669617,-0.08543678373098373,-0.0051418691873550415,-0.08554258197546005,0.045495711266994476,0.008069314062595367,0.0201597660779953,-0.010820411145687103,-0.06760350614786148,-0.0036058276891708374,-0.08093062788248062,-0.0667029395699501,-0.07493370026350021,-0.03577639162540436,0.0029207244515419006,-0.0031894445419311523,0.011666618287563324,-0.07657843828201294,0.03129053860902786,-0.07866436243057251,0.0752505287528038,-0.00012215226888656616,-0.02014254778623581,-0.04529767483472824,0.07725555449724197,0.02755018323659897,0.03812169283628464,-0.030844710767269135,-0.06660078465938568,-0.03161096200346947,0.0003921613097190857,-0.04233710467815399,-0.04606674611568451,0.02740742266178131,0.06987220793962479,0.053224824368953705,-0.053582798689603806,0.013335280120372772,-0.07998745143413544,-0.011741504073143005,-0.025957010686397552,-0.003496430814266205,-0.04108033701777458,-0.01365872472524643,0.04558705538511276,-0.05848389118909836,-0.05089448392391205,-0.07480747997760773,-0.013374976813793182,-0.07076183706521988,0.07919236272573471,-0.08029831200838089,0.07734385877847672,0.04038669914007187,0.050141118466854095,0.05835018306970596,-0.026349559426307678,0.0010235384106636047,0.053924478590488434,0.0814967080950737,-0.013327039778232574,-0.07813786715269089,0.0746392086148262,-0.05797750875353813,0.05348331481218338,0.03726145625114441,-0.06650692224502563,-0.016658484935760498,-0.08146125823259354,-0.02983206883072853,-0.06191320717334747,-0.02367698773741722,-0.06131819635629654,-0.030425358563661575,-0.05967738479375839,-0.017681412398815155,-0.04093747213482857,0.04621649533510208,0.03450619429349899,-0.03620019927620888,-0.07307524234056473,0.07447025924921036,0.05111657828092575,-0.026543840765953064,-0.046998530626297,-0.013762928545475006,0.009678661823272705,0.04901803284883499,0.026406288146972656,-0.0681549534201622,0.055738843977451324,-0.062298521399497986,0.016287297010421753,-0.062119752168655396,0.07896312326192856,0.04654865711927414,-0.03810028359293938,-0.02764897421002388,0.07129120081663132,0.06555906683206558,0.020203962922096252,-0.033460550010204315,0.05245881527662277,0.05262620002031326,-0.03407939895987511,-0.006278336048126221,-0.044975657016038895,-0.04472075775265694,-0.020941920578479767,0.08237665146589279,-0.06368514895439148,0.052037663757801056,-0.013574086129665375,-0.06680992245674133,-0.020711451768875122,0.03775261342525482,0.008251696825027466,-0.07450292259454727,-0.03849230334162712,0.05330183357000351,0.020885102450847626,0.035655297338962555,0.03328125178813934,0.04647812992334366,-0.03511001169681549,-0.04890759289264679,0.07572690397500992,0.00741017609834671,0.07896106690168381,0.02235294133424759,0.06726736575365067,0.03357033431529999,-0.0717058852314949,-0.02389020100235939,-0.04968876764178276,0.012594088912010193,-0.06359993666410446,-0.010154910385608673,-0.0073065608739852905,0.028279654681682587,0.05542469769716263,0.056701429188251495,-0.050363097339868546,0.06379956752061844,0.08516613394021988,-0.029445305466651917,-0.02057109773159027,-0.006846338510513306,-0.018498875200748444,0.005134545266628265,-0.05854755640029907,0.01937401294708252,-0.03626267611980438,-0.06857673823833466,-0.013127297163009644,0.07745721191167831,0.0032538175582885742,0.0527656152844429,-0.08241872489452362,-0.08229605853557587,0.03044275939464569,0.060317762196063995,-0.07061982899904251,0.05483224242925644,-0.036616791039705276,0.028441086411476135,-0.07018931210041046,0.06701115518808365,0.02575015276670456,-0.0519765168428421,-0.07704086601734161,-0.04545317217707634,-0.07228566706180573,0.04312162846326828,-0.05447778478264809,-0.06639969348907471,-0.03126716986298561,-0.05239535868167877,-0.08317700028419495,0.020853720605373383,-0.03797575831413269,0.05950642377138138,-0.0342184379696846,0.04509156197309494,-0.04031756520271301,0.06410359591245651,0.01904159039258957,0.0585591122508049,0.04864085465669632,-0.01526891440153122,-0.05344506725668907,0.06554649025201797,0.03164786100387573,0.04359949380159378,0.04002750664949417,0.05542539805173874,-0.024246666580438614,0.0036266595125198364,-0.03150888532400131,0.024411484599113464,0.011816635727882385,0.004791676998138428,-0.07624123245477676,-0.0791000947356224,-0.07741457223892212,0.004261739552021027,-0.03967706486582756,-0.04964638501405716,-0.04717608913779259,-0.020521380007267,0.006678082048892975,0.005566269159317017,0.03035265952348709,0.03186878561973572,-0.046413276344537735,0.004774071276187897,-0.04742788150906563,-0.0049919262528419495,-0.06729817390441895,0.025321558117866516,-0.0013273805379867554,-0.011739417910575867,0.08380619436502457,-0.004678167402744293,-0.07354717701673508,-0.05356656759977341,0.07881338149309158,-0.01478828489780426,-0.02843601256608963,-0.06564131379127502,-0.040291618555784225,-0.04775507003068924,-0.0012267380952835083,-0.03766116499900818,0.04975568503141403,0.06430370360612869,0.0011342242360115051,-0.04168276861310005,0.018672138452529907,-0.0683269053697586,0.0695619210600853,-0.05454040318727493,0.060442470014095306,0.014128737151622772,0.07737123221158981,-0.0731157436966896,-0.015156224370002747,-0.03695906698703766,0.0024712979793548584,-0.028715547174215317,-0.03468681499361992,-0.01561390608549118,0.08197904378175735,-0.08492888510227203,0.037274785339832306,-0.057519249618053436,-0.02341756969690323,-0.04941914975643158,0.015458263456821442,-0.0194462388753891,0.04190146178007126,0.02063954621553421,-0.07653683423995972,-0.03420465812087059,0.04233437031507492,-0.06913886964321136,-0.05034878849983215,0.05213902145624161,-0.030979540199041367,0.032587721943855286,-0.055512528866529465,-0.06383217871189117,0.07809454947710037,-0.06936369836330414,0.001492530107498169,-0.07709316909313202,-0.0669126957654953,-0.0844474658370018,0.04150544852018356,0.014304004609584808,0.0027299821376800537,0.06849478930234909,-0.05848107114434242,0.07952823489904404,-0.028803151100873947,-0.029818512499332428,-0.024984396994113922,-0.02415178343653679,-0.07525214552879333,