-0.24443359673023224,0.04306083917617798,-0.2408446967601776,0.20603081583976746,-0.27038779854774475,-0.2084965854883194,-0.17849349975585938,0.1607341468334198,0.29303237795829773,-0.23093226552009583,-0.12915943562984467,-0.2485123872756958,0.2834843099117279,0.2745649516582489,0.34370097517967224,0.0656227171421051,-0.14273881912231445,-0.1669948250055313,0.26727691292762756,-0.15880291163921356,-0.26352763175964355,-0.1949409693479538,0.2862514555454254,-0.165895476937294,-0.2685171365737915,0.15430578589439392,-0.22470693290233612,0.2728199064731598,-0.28674447536468506,0.32392194867134094,-0.25357845425605774,0.08834755420684814,0.11634635925292969,-0.27794110774993896,-0.1953800618648529,0.23061248660087585,-0.3196646273136139,-0.24020887911319733,0.20279911160469055,0.19082960486412048,0.28635916113853455,-0.037354737520217896,0.13617494702339172,-0.3174075782299042,0.3262416422367096,0.09048280119895935,-0.30272579193115234,-0.1833096295595169,0.30227914452552795,-0.16888107359409332,-0.11305993795394897,-0.3001284599304199,-0.15090332925319672,0.21257421374320984,0.3426348865032196,0.2975207269191742,0.20009508728981018,0.20538392663002014,-0.0016797184944152832,-0.10404910147190094,0.13655629754066467,-0.3186527490615845,0.05713796615600586,-0.045157551765441895,0.16449221968650818,0.21656975150108337,-0.23156598210334778,0.29852095246315,-0.1314568668603897,-0.2485913783311844,-0.19384093582630157,0.2524891793727875,-0.2713385224342346,0.2705399692058563,-0.13850188255310059,0.3513619005680084,0.17981407046318054,-0.1483246237039566,0.03519970178604126,0.2259139120578766,0.1705203354358673,0.30226781964302063,-0.19463194906711578,-0.06546652317047119,0.09288424253463745,-0.017159491777420044,0.3531911075115204,0.11814376711845398,0.33290979266166687,-0.03214067220687866,0.24991074204444885,0.18154636025428772,0.17247846722602844,-0.3017030656337738,0.02110368013381958,-0.049905240535736084,-0.09526360034942627,0.2269185483455658,-0.11103872954845428,-0.04819634556770325,0.007326304912567139,-0.007916450500488281,-0.34708166122436523,0.2711566984653473,0.1273740828037262,0.2854882776737213,0.2465294897556305,0.08675050735473633,-0.059765249490737915,0.041172146797180176,0.3379151523113251,-0.162892684340477,0.04432407021522522,-0.2959020733833313,-0.0712595283985138,-0.31755363941192627,-0.24945589900016785,-0.10087931156158447,-0.10191580653190613,-0.16139696538448334,-0.05156776309013367,0.31852278113365173,0.30780187249183655,0.3501811921596527,-0.02447560429573059,-0.12835122644901276,-0.20951753854751587,-0.2691526412963867,-0.33200782537460327,-0.1859794557094574,-0.28874915838241577,0.18412771821022034,-0.31241974234580994,-0.2302534580230713,-0.30338650941848755,0.08619728684425354,-0.24115490913391113,0.22071459889411926,-0.18689952790737152,-0.23062653839588165,0.25446024537086487,0.1187753677368164,0.06967118382453918,0.22004935145378113,0.17126014828681946,0.058256566524505615,-0.10423673689365387,-0.19809338450431824,-0.11916793882846832,0.049150317907333374,0.2985225021839142,0.3409292995929718,0.3199717104434967,0.09941616654396057,-0.03293338418006897,-0.04472437500953674,0.07002860307693481,-0.34378036856651306,-0.32270070910453796,0.28188762068748474,-0.04303377866744995,0.29859867691993713,-0.2678450644016266,0.3077707588672638,-0.07474473118782043,-0.19417549669742584,0.08176109194755554,-0.3215986490249634,0.24798879027366638,0.030226200819015503,0.15730544924736023,0.1398043930530548,0.004583895206451416,0.3416307270526886,0.07391443848609924,0.16710469126701355,-0.17805592715740204,-0.07933679223060608,-0.024694770574569702,0.07546594738960266,-0.2923036515712738,0.11003613471984863,-0.0811748206615448,-0.22423042356967926,0.19273492693901062,-0.05502590537071228,-0.3087731897830963,0.00860816240310669,-0.07048597931861877,-0.19214335083961487,0.32898351550102234,-0.04372727870941162,0.34386494755744934,0.25181272625923157,0.08997881412506104,-0.27578645944595337,-0.15360401570796967,-0.30207639932632446,0.18569645285606384,0.07109659910202026,0.17621412873268127,-0.0191175639629364,0.010820120573043823,0.11333960294723511,0.2790355384349823,-0.23455926775932312,0.22598323225975037,0.2988003194332123,0.20526710152626038,0.3457227647304535,-0.24955478310585022,0.12354454398155212,0.20900973677635193,0.09833568334579468,0.10311579704284668,0.32340380549430847,-0.008683174848556519,-0.15260277688503265,0.14935502409934998,-0.09530159831047058,-0.320841521024704,-0.23849695920944214,0.1969965398311615,0.27560660243034363,0.3398191034793854,0.18305769562721252,0.05670648813247681,-0.05054992437362671,-0.026910603046417236,-0.18667757511138916,0.07757270336151123,-0.04207637906074524,0.10021036863327026,0.23225274682044983,-0.30155032873153687,0.23952046036720276,0.281057208776474,0.1681492030620575,0.10968086123466492,0.04576331377029419,-0.2182479202747345,0.2637377083301544,0.2734852731227875,-0.10215628147125244,0.3296932876110077,-0.012271314859390259,0.056102097034454346,-0.16759845614433289,-0.07349854707717896,0.060383111238479614,0.06898698210716248,-0.16462263464927673,0.1626376211643219,0.05150336027145386,-0.210538849234581,0.10613024234771729,-0.336934894323349,-0.21344386041164398,-0.011771440505981445,-0.023507922887802124,0.07172229886054993,0.28316500782966614,-0.1830529421567917,-0.2968648672103882,0.01841866970062256,-0.24849402904510498,0.12430748343467712,-0.34333285689353943,0.017094075679779053,-0.1903398036956787,0.3047831356525421,0.19794580340385437,0.26013192534446716,0.1326501965522766,-0.16085875034332275,0.05944964289665222,0.3408948481082916,-0.2807752192020416,0.22943392395973206,-0.17274914681911469,0.14806070923805237,0.3496887981891632,-0.21626971662044525,-0.24620763957500458,-0.06621724367141724,-0.13576173782348633,-0.3125201463699341,-0.03634929656982422,-0.253583163022995,-0.2798216938972473,0.153413325548172,0.2492223083972931,-0.15602172911167145,-0.07205569744110107,0.3498232066631317,0.18617483973503113,-0.06463995575904846,0.07511898875236511,-0.1653670370578766,0.3363388478755951,-0.09082433581352234,0.21066352725028992,-0.2249153107404709,-0.31621238589286804,0.11567193269729614,0.2663232386112213,-0.07208973169326782,-0.1626514345407486,0.06685924530029297,-0.25006887316703796,0.20566150546073914,0.3077090084552765,-0.06992515921592712,0.018071889877319336,-0.22507992386817932,0.013516336679458618,-0.2348092794418335,0.30223193764686584,0.10668951272964478,-0.24859103560447693,0.25906088948249817,-0.08126881718635559,0.07033583521842957,0.08745092153549194,0.07620799541473389,-0.12883001565933228,-0.07587215304374695,-0.2106262594461441,0.10097718238830566,-0.04396405816078186,0.22119036316871643,0.21002927422523499,-0.33726876974105835,-0.13743193447589874,0.0819624662399292,0.04583621025085449,-0.14392490684986115,0.23681721091270447,-0.2031875103712082,-0.12035217881202698,0.2585050165653229,0.2381199300289154,0.11112892627716064,-0.1920134574174881,-0.24317821860313416,0.21749600768089294,-0.11608995497226715,0.14638343453407288,-0.10616622865200043,0.07795387506484985,-0.04302939772605896,-0.20225927233695984,0.24699696898460388,-0.30609485507011414,-0.1580526977777481,0.11666643619537354,0.0852893590927124,-0.34821540117263794,-0.18222391605377197,-0.2361723929643631,0.16819998621940613,0.2481497824192047,-0.29531943798065186,0.3472985327243805,-0.3248331844806671,-0.14742393791675568,0.2186642587184906,-0.019109457731246948,0.24482479691505432,0.2934817969799042,0.05658668279647827,-0.13095244765281677,-0.3390871584415436,-0.3342379927635193,0.17452815175056458,-0.14291970431804657,-0.3318217992782593,-0.14639277756214142,0.12234464287757874,0.23535755276679993,-0.06511098146438599,-0.04685220122337341,0.09546563029289246,-0.2839113771915436,0.22354868054389954,0.31811073422431946,-0.31508156657218933,0.21231195330619812,0.10725757479667664,-0.08391833305358887,-0.2381020486354828,0.09595674276351929,-0.10928955674171448,0.2305881679058075,0.044184744358062744,-0.03225025534629822,0.19721123576164246,-0.32013726234436035,-0.05365648865699768,-0.2697334289550781,0.30940642952919006,-0.14209270477294922,-0.1307423859834671,0.27691522240638733,0.09407436847686768,0.21559670567512512,-0.271757572889328,-0.24966999888420105,0.31743207573890686,-0.28359392285346985,-0.13498927652835846,0.12017297744750977,-0.27339422702789307,0.08646351099014282,0.246700257062912,0.3314681947231293,-0.25126612186431885,0.27978602051734924,0.2421894371509552,-0.05875447392463684,-0.2988595962524414,-0.03869199752807617,-0.09842965006828308,-0.09317564964294434,0.014065653085708618,-0.1470109075307846,-0.08057650923728943,0.21356859803199768,-0.298880398273468,-0.3001076579093933,-0.25822463631629944,0.07389125227928162,0.28541097044944763,-0.010384827852249146,-0.23431278765201569,-0.34841179847717285,0.3519056737422943,-0.20209641754627228,0.07450956106185913,0.3375198543071747,0.003481239080429077,-0.0238611102104187,0.18405386805534363,0.0861993134021759,-0.09475335478782654,-0.15968479216098785,0.23538711667060852,-0.0379810631275177,-0.03265604376792908,0.1923031508922577,-0.3312286138534546,-0.29883092641830444,-0.20752239227294922,-0.3276520371437073,-0.19845062494277954,-0.17067205905914307,-0.16594351828098297,-0.18153153359889984,0.2040545642375946,-0.0349067747592926,0.14302802085876465,0.00648835301399231,0.31991860270500183,-0.17010468244552612,0.21872839331626892,-0.15614910423755646,0.3193438947200775,-0.34107261896133423,0.24869582056999207,0.01923733949661255,-0.04623931646347046,0.24907460808753967,0.057693302631378174,0.14652761816978455,-0.01121443510055542,-0.09465879201889038,-0.0024238526821136475,0.1950429379940033,0.1570635735988617,0.3461035192012787,0.21969649195671082,-0.05857771635055542,0.08140629529953003,-0.09078136086463928,-0.3087446987628937,-0.1036464273929596,0.08547356724739075,-0.16910065710544586,0.20685747265815735,0.2417776882648468,0.21794447302818298,-0.10418498516082764,-0.08894258737564087,0.20234611630439758,0.33857598900794983,-0.3185475468635559,-0.19061501324176788,-0.048801928758621216,-0.0807403028011322,0.1116134524345398,-0.1490572988986969,0.2199842631816864,-0.10477142035961151,-0.02191948890686035,-0.08101248741149902,-0.33559131622314453,-0.3250899314880371,-0.31534337997436523,-0.08343726396560669,0.0655965805053711,0.23189648985862732,0.2117028534412384
