-0.10080310702323914,-0.14274492859840393,0.1168871521949768,0.19914674758911133,-0.29090428352355957,-0.26908090710639954,0.26135969161987305,-0.43665170669555664,0.4658346176147461,-0.4185239374637604,-0.3063996434211731,0.15196388959884644,0.010071992874145508,0.3830326795578003,0.2768602967262268,0.16399991512298584,0.16787874698638916,0.02723228931427002,0.191464364528656,0.10448867082595825,-0.17013242840766907,0.037240028381347656,0.008192747831344604,0.2745935916900635,-0.3257031738758087,-0.30562686920166016,0.13753187656402588,0.31568384170532227,-0.22970768809318542,0.46530210971832275,-0.12070634961128235,0.034285128116607666,-0.43768924474716187,0.3204314708709717,0.0682305097579956,-0.1593480408191681,0.20056533813476562,-0.007916152477264404,0.24972718954086304,0.17044854164123535,-0.3349359929561615,-0.1905224323272705,-0.2748599946498871,0.2970607280731201,0.399837851524353,-0.00514790415763855,0.27561312913894653,0.48019540309906006,0.2101481556892395,0.4536237120628357,0.0932653546333313,0.3107764720916748,-0.28649628162384033,0.4316512942314148,-0.3750529885292053,-0.427368700504303,0.4090734124183655,-0.07720550894737244,-0.27312010526657104,0.07194364070892334,-0.28625667095184326,0.23260629177093506,-0.43565812706947327,-0.09298235177993774,0.09186255931854248,0.19272363185882568,-0.43936771154403687,-0.0042663514614105225,-0.1851690709590912,-0.23943620920181274,-0.016407698392868042,-0.26120585203170776,-0.27426600456237793,-0.28251731395721436,-0.08203625679016113,-0.3919656574726105,-0.40757301449775696,0.3158034682273865,0.2406381368637085,0.059230268001556396,-0.091859370470047,-0.055317848920822144,0.2590014338493347,-0.3566332757472992,-0.23341694474220276,0.32426077127456665,-0.37603944540023804,0.26855313777923584,0.43598657846450806,0.29405051469802856,-0.39711642265319824,0.2980186939239502,-0.44431209564208984,0.24760854244232178,-0.40103915333747864,0.1002570390701294,-0.007904231548309326,-0.42335960268974304,-0.14752793312072754,-0.21031755208969116,0.4729311466217041,-0.021909743547439575,-0.22752469778060913,0.4149472117424011,-0.23350869119167328,-0.15764299035072327,0.4508141279220581,0.41437602043151855,0.4078369140625,0.3261834383010864,0.12923765182495117,-0.2019939124584198,0.16655349731445312,-0.0551791787147522,-0.043060123920440674,-0.4739026129245758,0.13550704717636108,0.41156071424484253,-0.20598718523979187,-0.17309722304344177,0.3846043348312378,-0.32065457105636597,0.2634238004684448,-0.2783412039279938,0.027911484241485596,0.02911454439163208,-0.3125118911266327,0.1423255205154419,-0.4587914049625397,-0.09970793128013611,0.3246704339981079,0.09741318225860596,-0.2564646601676941,0.18707925081253052,0.2868993282318115,-0.12826424837112427,-0.18818366527557373,-0.04638087749481201,0.4570074677467346,-0.10428053140640259,0.15669411420822144,-0.28728950023651123,-0.31675657629966736,-0.4300236999988556,-0.20482057332992554,-0.06428050994873047,-0.10488733649253845,-0.1150115430355072,0.4214709997177124,0.07436507940292358,-0.37603360414505005,0.35826170444488525,0.3290218710899353,-0.13910967111587524,0.24678289890289307,-0.2464316189289093,0.36567550897598267,0.19287288188934326,0.218211829662323,0.34466761350631714
